{"learner":{"attributes":{"best_iteration":"49","best_score":"0.10306191907474711","scikit_learn":"{\"_estimator_type\": \"classifier\"}"},"feature_names":[],"feature_types":[],"gradient_booster":{"model":{"gbtree_model_param":{"num_parallel_tree":"1","num_trees":"50"},"iteration_indptr":[0,1,2,3,4,5,6,7,8,9,10,11,12,13,14,15,16,17,18,19,20,21,22,23,24,25,26,27,28,29,30,31,32,33,34,35,36,37,38,39,40,41,42,43,44,45,46,47,48,49,50],"tree_info":[0,0,0,0,0,0,0,0,0,0,0,0,0,0,0,0,0,0,0,0,0,0,0,0,0,0,0,0,0,0,0,0,0,0,0,0,0,0,0,0,0,0,0,0,0,0,0,0,0,0],"trees":[{"base_weights":[-1.4762859E-2,-1.7387864E-1,9.237228E-1,-2.837768E-1,9.6244556E-1,1.1160377E0,7.1017414E-1,-3.5676652E-1,2.2149019E-1,1.2233745E0,6.887625E-1,1.1233042E0,-1.5695445E-1,6.3239306E-1,1.1472675E0,-3.0545635E-2,-1.02907754E-1,3.401126E-3,3.4894925E-2,1.2335157E-1,-1.5601595E-1,5.9120294E-2,1.1103157E-1,1.12904884E-1,-1.564159E-1,-1.1518885E-1,6.5121986E-2,1.7105407E-1,8.494331E-2],"categories":[],"categories_nodes":[],"categories_segments":[],"categories_sizes":[],"default_left":[0,0,0,0,0,0,0,0,0,0,0,0,0,0,0,0,0,0,0,0,0,0,0,0,0,0,0,0,0],"id":0,"left_children":[1,3,5,7,9,11,13,15,17,19,21,23,-1,25,27,-1,-1,-1,-1,-1,-1,-1,-1,-1,-1,-1,-1,-1,-1],"loss_changes":[5.6802508E4,4.0616734E4,2.263875E3,1.0937121E4,2.0473809E3,5.679375E2,8.877002E2,8.938746E3,8.9450476E2,4.163672E2,5.7516016E2,4.4848047E2,0E0,7.460459E2,6.6061865E2,0E0,0E0,0E0,0E0,0E0,0E0,0E0,0E0,0E0,0E0,0E0,0E0,0E0,0E0],"parents":[2147483647,0,0,1,1,2,2,3,3,4,4,5,5,6,6,7,7,8,8,9,9,10,10,11,11,13,13,14,14],"right_children":[2,4,6,8,10,12,14,16,18,20,22,24,-1,26,28,-1,-1,-1,-1,-1,-1,-1,-1,-1,-1,-1,-1,-1,-1],"split_conditions":[3.0802069E0,4.414613E0,9.0920585E-1,3.1802278E0,9.0920585E-1,1.6790815E1,1.3210708E-1,3.754845E0,8.956403E-3,1.2516008E1,-9.63068E-2,1.6679781E1,-1.5695445E-1,-2.0956712E0,3.927243E-1,-3.0545635E-2,-1.02907754E-1,3.401126E-3,3.4894925E-2,1.2335157E-1,-1.5601595E-1,5.9120294E-2,1.1103157E-1,1.12904884E-1,-1.564159E-1,-1.1518885E-1,6.5121986E-2,1.7105407E-1,8.494331E-2],"split_indices":[703,707,713,711,713,1085,3,704,2,829,3,1153,0,1,3,0,0,0,0,0,0,0,0,0,0,0,0,0,0],"split_type":[0,0,0,0,0,0,0,0,0,0,0,0,0,0,0,0,0,0,0,0,0,0,0,0,0,0,0,0,0],"sum_hessian":[3.8038572E5,3.2524312E5,5.514261E4,2.9656222E5,2.8680887E4,2.9011545E4,2.6131064E4,2.591293E5,3.7432934E4,1.4680785E4,1.4000102E4,2.893384E4,7.770575E1,2.2185574E4,3.9454917E3,2.4075644E5,1.837286E4,1.5150054E4,2.228288E4,1.4628048E4,5.2737232E1,1.137094E4,2.6291611E3,2.8872701E4,6.1137856E1,2.3101709E2,2.1954557E4,1.3630007E3,2.582491E3],"tree_param":{"num_deleted":"0","num_feature":"1190","num_nodes":"29","size_leaf_vector":"1"}},{"base_weights":[-5.1366393E-3,-1.8653817E-1,1.2080005E0,-3.9099014E-1,8.1442565E-1,1.522286E0,8.388643E-1,-4.8424658E-1,1.966922E-1,9.907346E-1,6.141511E-1,1.353696E0,1.6403534E0,6.404576E-1,9.790182E-1,-4.2380642E-2,-9.670413E-2,-1.2789441E-4,3.223656E-2,9.971233E-2,-1.484653E-1,1.1272567E-1,5.7049043E-2,1.4682639E-1,8.993902E-2,1.6472127E-1,-1.5265189E-1,6.1431557E-2,2.7247053E-1,1.6385321E-1,9.2217214E-2],"categories":[],"categories_nodes":[],"categories_segments":[],"categories_sizes":[],"default_left":[0,0,0,0,0,0,0,0,0,0,0,0,0,0,0,0,0,0,0,0,0,0,0,0,0,0,0,0,0,0,0],"id":1,"left_children":[1,3,5,7,9,11,13,15,17,19,21,23,25,27,29,-1,-1,-1,-1,-1,-1,-1,-1,-1,-1,-1,-1,-1,-1,-1,-1],"loss_changes":[8.391983E4,6.788984E4,5.7535938E3,1.509732E4,1.9861719E3,5.310703E2,6.3377246E2,6.9370273E3,9.386426E2,4.7467773E2,5.895625E2,5.733301E2,3.446836E2,5.130696E2,4.9965918E2,0E0,0E0,0E0,0E0,0E0,0E0,0E0,0E0,0E0,0E0,0E0,0E0,0E0,0E0,0E0,0E0],"parents":[2147483647,0,0,1,1,2,2,3,3,4,4,5,5,6,6,7,7,8,8,9,9,10,10,11,11,12,12,13,13,14,14],"right_children":[2,4,6,8,10,12,14,16,18,20,22,24,26,28,30,-1,-1,-1,-1,-1,-1,-1,-1,-1,-1,-1,-1,-1,-1,-1,-1],"split_conditions":[3.50619E0,3.0802069E0,9.0920585E-1,3.1802278E0,9.0920585E-1,-2.880465E-1,-1.4879086E-2,3.0874302E0,-7.9630315E-3,1.6790815E1,-2.0841062E0,-2.905568E-1,1.7805796E1,2.8952925E1,6.946225E-2,-4.2380642E-2,-9.670413E-2,-1.2789441E-4,3.223656E-2,9.971233E-2,-1.484653E-1,1.1272567E-1,5.7049043E-2,1.4682639E-1,8.993902E-2,1.6472127E-1,-1.5265189E-1,6.1431557E-2,2.7247053E-1,1.6385321E-1,9.2217214E-2],"split_indices":[710,703,713,711,713,3,5,705,2,1085,2,3,928,1120,2,0,0,0,0,0,0,0,0,0,0,0,0,0,0,0,0],"split_type":[0,0,0,0,0,0,0,0,0,0,0,0,0,0,0,0,0,0,0,0,0,0,0,0,0,0,0,0,0,0,0],"sum_hessian":[3.8133922E5,3.3173538E5,4.960385E4,2.7546984E5,5.626551E4,2.6790814E4,2.2813035E4,2.3774364E5,3.772621E4,2.9921008E4,2.6344504E4,1.1039641E4,1.5751175E4,9.446214E3,1.3366821E4,2.11294E5,2.644963E4,1.464973E4,2.3076479E4,2.984458E4,7.642779E1,2.0639482E3,2.4280557E4,8.814538E3,2.225103E3,1.5717611E4,3.3562878E1,9.33048E3,1.1573406E2,1.0585038E3,1.2308317E4],"tree_param":{"num_deleted":"0","num_feature":"1190","num_nodes":"31","size_leaf_vector":"1"}},{"base_weights":[2.8383005E-3,-1.0007128E0,2.316542E0,-4.5417655E-1,-1.4101737E0,2.348617E0,-1.5466388E-1,-8.283657E-1,2.8164315E0,-1.4798176E0,-6.7286146E-1,2.1038835E0,2.5126112E0,-1.135693E-1,4.3924358E-2,2.818115E-1,2.3791774E-1,-1.5070502E-1,-1.1563154E-2,-1.54808E-1,8.4198825E-2,2.1774991E-1,-1.631962E-1,2.5130877E-1,-1.4170012E-1],"categories":[],"categories_nodes":[],"categories_segments":[],"categories_sizes":[],"default_left":[0,0,0,0,0,0,0,0,0,0,0,0,0,0,0,0,0,0,0,0,0,0,0,0,0],"id":2,"left_children":[1,3,5,7,9,11,-1,13,15,17,19,21,23,-1,-1,-1,-1,-1,-1,-1,-1,-1,-1,-1,-1],"loss_changes":[8.863608E5,5.95825E4,1.43135625E4,1.3956631E5,7.8150625E3,4.5915625E3,0E0,3.9866133E4,1.921875E0,5.1665E3,1.742072E4,1.2643516E4,1.319375E2,0E0,0E0,0E0,0E0,0E0,0E0,0E0,0E0,0E0,0E0,0E0,0E0],"parents":[2147483647,0,0,1,1,2,2,3,3,4,4,5,5,7,7,8,8,9,9,10,10,11,11,12,12],"right_children":[2,4,6,8,10,12,-1,14,16,18,20,22,24,-1,-1,-1,-1,-1,-1,-1,-1,-1,-1,-1,-1],"split_conditions":[1.0658262E0,-2.8469425E-1,5.568764E0,2.9746828E0,3.6300626E0,3.5865357E0,-1.5466388E-1,-3.3222538E-1,-2.8874874E-1,9.1169304E-1,1.5961583E-1,3.50619E0,1.4469367E1,-1.135693E-1,4.3924358E-2,2.818115E-1,2.3791774E-1,-1.5070502E-1,-1.1563154E-2,-1.54808E-1,8.4198825E-2,2.1774991E-1,-1.631962E-1,2.5130877E-1,-1.4170012E-1],"split_indices":[0,0,712,701,700,0,0,0,0,0,0,710,1185,0,0,0,0,0,0,0,0,0,0,0,0],"split_type":[0,0,0,0,0,0,0,0,0,0,0,0,0,0,0,0,0,0,0,0,0,0,0,0,0],"sum_hessian":[3.8173422E5,2.6625062E5,1.1548359E5,1.14038086E5,1.5221255E5,1.1453304E5,9.505515E2,1.02331164E5,1.1706925E4,1.39075E5,1.3137555E4,4.595974E4,6.8573305E4,8.236273E4,1.996844E4,1.1656606E4,5.0317932E1,1.3635295E5,2.7220493E3,8.326703E3,4.810852E3,4.5072004E4,8.87737E2,6.856535E4,7.9500465E0],"tree_param":{"num_deleted":"0","num_feature":"1190","num_nodes":"25","size_leaf_vector":"1"}},{"base_weights":[-1.0382907E-2,-9.3547213E-1,2.001409E0,-4.301227E-1,-1.3299515E0,2.028166E0,-1.4680825E-1,-1.3420222E0,1.6721626E-1,-1.4031647E0,-5.807497E-1,2.055045E0,6.851187E-1,-1.4490792E-1,-8.9148544E-2,3.0538335E-2,-1.5557733E-1,-1.4242087E-1,3.4083404E-2,-1.4566876E-1,7.772388E-2,2.0603542E-1,-1.6714334E-1,-1.560257E-1,1.961119E-1],"categories":[],"categories_nodes":[],"categories_segments":[],"categories_sizes":[],"default_left":[0,0,0,0,0,0,0,0,0,0,0,0,0,0,0,0,0,0,0,0,0,0,0,0,0],"id":3,"left_children":[1,3,5,7,9,11,-1,13,15,17,19,21,23,-1,-1,-1,-1,-1,-1,-1,-1,-1,-1,-1,-1],"loss_changes":[7.005554E5,5.140242E4,1.10100625E4,6.1576066E4,7.942328E3,4.2461875E3,0E0,2.1567031E3,1.6260625E4,4.8419844E3,1.5337699E4,2.2856562E3,6.621804E3,0E0,0E0,0E0,0E0,0E0,0E0,0E0,0E0,0E0,0E0,0E0,0E0],"parents":[2147483647,0,0,1,1,2,2,3,3,4,4,5,5,7,7,8,8,9,9,10,10,11,11,12,12],"right_children":[2,4,6,8,10,12,-1,14,16,18,20,22,24,-1,-1,-1,-1,-1,-1,-1,-1,-1,-1,-1,-1],"split_conditions":[1.0658262E0,-2.8057736E-1,5.568764E0,-3.942903E-1,3.6300626E0,3.9087899E0,-1.4680825E-1,-4.0146363E-1,3.1802278E0,9.748184E-1,1.5961583E-1,3.2359614E0,3.5865357E0,-1.4490792E-1,-8.9148544E-2,3.0538335E-2,-1.5557733E-1,-1.4242087E-1,3.4083404E-2,-1.4566876E-1,7.772388E-2,2.0603542E-1,-1.6714334E-1,-1.560257E-1,1.961119E-1],"split_indices":[0,0,712,0,700,708,0,0,711,0,0,706,0,0,0,0,0,0,0,0,0,0,0,0,0],"split_type":[0,0,0,0,0,0,0,0,0,0,0,0,0,0,0,0,0,0,0,0,0,0,0,0,0],"sum_hessian":[3.7642062E5,2.5785214E5,1.1856849E5,1.130417E5,1.4481044E5,1.176615E5,9.0699255E2,4.4740094E4,6.830161E4,1.319183E5,1.2892141E4,1.15352375E5,2.309127E3,3.6148285E4,8.591807E3,6.3231848E4,5.06976E3,1.30345664E5,1.572627E3,7.8369995E3,5.055141E3,1.1518871E5,1.6366638E2,8.36651E2,1.4724761E3],"tree_param":{"num_deleted":"0","num_feature":"1190","num_nodes":"25","size_leaf_vector":"1"}},{"base_weights":[-1.5521965E-2,-8.781573E-1,1.7819519E0,-4.0868863E-1,-1.2478589E0,1.8051499E0,-1.403942E-1,-7.4905777E-1,2.3349915E0,-1.3302733E0,-4.5098117E-1,1.8289416E0,5.965332E-1,-1.0254859E-1,3.168884E-2,2.503474E-1,2.3267357E-1,-1.3585573E-1,-3.1067037E-3,-1.3758813E-1,9.061817E-2,1.661092E-1,1.9399457E-1,-1.4580129E-1,1.7219137E-1],"categories":[],"categories_nodes":[],"categories_segments":[],"categories_sizes":[],"default_left":[0,0,0,0,0,0,0,0,0,0,0,0,0,0,0,0,0,0,0,0,0,0,0,0,0],"id":4,"left_children":[1,3,5,7,9,11,-1,13,15,17,19,21,23,-1,-1,-1,-1,-1,-1,-1,-1,-1,-1,-1,-1],"loss_changes":[5.7140275E5,4.321836E4,8.8345625E3,1.0245041E5,9.148219E3,3.4104375E3,0E0,2.875814E4,1.10234375E1,4.6392344E3,1.6392709E4,2.1645938E3,5.3015527E3,0E0,0E0,0E0,0E0,0E0,0E0,0E0,0E0,0E0,0E0,0E0,0E0],"parents":[2147483647,0,0,1,1,2,2,3,3,4,4,5,5,7,7,8,8,9,9,10,10,11,11,12,12],"right_children":[2,4,6,8,10,12,-1,14,16,18,20,22,24,-1,-1,-1,-1,-1,-1,-1,-1,-1,-1,-1,-1],"split_conditions":[1.0658262E0,-2.8469425E-1,5.568764E0,2.9746828E0,3.6300626E0,3.9087899E0,-1.403942E-1,-3.3222538E-1,-3.942903E-1,9.1169304E-1,1.8756062E-1,3.5865357E0,3.5865357E0,-1.0254859E-1,3.168884E-2,2.503474E-1,2.3267357E-1,-1.3585573E-1,-3.1067037E-3,-1.3758813E-1,9.061817E-2,1.661092E-1,1.9399457E-1,-1.4580129E-1,1.7219137E-1],"split_indices":[0,0,712,701,700,708,0,0,0,0,0,0,0,0,0,0,0,0,0,0,0,0,0,0,0],"split_type":[0,0,0,0,0,0,0,0,0,0,0,0,0,0,0,0,0,0,0,0,0,0,0,0,0],"sum_hessian":[3.6851075E5,2.4900833E5,1.19502414E5,1.09703055E5,1.3930527E5,1.18638984E5,8.63434E2,9.75964E4,1.2106661E4,1.2624784E5,1.3057428E4,1.1634816E5,2.2908289E3,7.749891E4,2.0097488E4,5.513971E2,1.1555264E4,1.235579E5,2.689939E3,7.7653584E3,5.292069E3,4.6321406E4,7.002675E4,8.106229E2,1.480206E3],"tree_param":{"num_deleted":"0","num_feature":"1190","num_nodes":"25","size_leaf_vector":"1"}},{"base_weights":[-1.4246833E-2,-8.191376E-1,1.619677E0,-3.6076927E-1,-1.1935279E0,1.6401417E0,-1.350769E-1,-6.724053E-1,2.0563803E0,-1.2647004E0,-5.043671E-1,1.4540751E0,1.7590683E0,-9.580904E-2,3.5265684E-2,2.0581353E-1,1.3124019E-1,-1.294023E-1,-3.2506936E-4,-1.3544063E-1,6.2239416E-2,5.8358043E-2,1.7743075E-1,1.7594221E-1,-1.8589137E-1],"categories":[],"categories_nodes":[],"categories_segments":[],"categories_sizes":[],"default_left":[0,0,0,0,0,0,0,0,0,0,0,0,0,0,0,0,0,0,0,0,0,0,0,0,0],"id":5,"left_children":[1,3,5,7,9,11,-1,13,15,17,19,21,23,-1,-1,-1,-1,-1,-1,-1,-1,-1,-1,-1,-1],"loss_changes":[4.6966638E5,4.1059E4,7.1670625E3,8.102959E4,6.4588906E3,2.5877188E3,0E0,2.790395E4,1.3339844E1,4.4152188E3,1.1809616E4,1.272443E4,9.46875E1,0E0,0E0,0E0,0E0,0E0,0E0,0E0,0E0,0E0,0E0,0E0,0E0],"parents":[2147483647,0,0,1,1,2,2,3,3,4,4,5,5,7,7,8,8,9,9,10,10,11,11,12,12],"right_children":[2,4,6,8,10,12,-1,14,16,18,20,22,24,-1,-1,-1,-1,-1,-1,-1,-1,-1,-1,-1,-1],"split_conditions":[1.0658262E0,-2.8469425E-1,5.568764E0,2.9746828E0,3.6300626E0,3.5865357E0,-1.350769E-1,-3.3222538E-1,-2.8874874E-1,9.1169304E-1,1.5961583E-1,3.0802069E0,2.0649004E1,-9.580904E-2,3.5265684E-2,2.0581353E-1,1.3124019E-1,-1.294023E-1,-3.2506936E-4,-1.3544063E-1,6.2239416E-2,5.8358043E-2,1.7743075E-1,1.7594221E-1,-1.8589137E-1],"split_indices":[0,0,712,701,700,0,0,0,0,0,0,703,924,0,0,0,0,0,0,0,0,0,0,0,0],"split_type":[0,0,0,0,0,0,0,0,0,0,0,0,0,0,0,0,0,0,0,0,0,0,0,0,0],"sum_hessian":[3.571234E5,2.3926102E5,1.1786239E5,1.075675E5,1.3169353E5,1.1705638E5,8.06009E2,9.5283586E4,1.2283912E4,1.1936535E5,1.2328174E4,4.564916E4,7.140722E4,7.4516016E4,2.076757E4,1.2253239E4,3.067346E1,1.166537E5,2.7116511E3,7.0268506E3,5.301323E3,1.2277576E4,3.3371586E4,7.140075E4,6.4687686E0],"tree_param":{"num_deleted":"0","num_feature":"1190","num_nodes":"25","size_leaf_vector":"1"}},{"base_weights":[-1.0951627E-2,-7.759108E-1,1.494961E0,-3.4151676E-1,-1.1482016E0,1.5133104E0,-1.3061851E-1,-6.332679E-1,1.859691E0,-1.2168349E0,-4.9336627E-1,1.3392931E0,1.6247106E0,-7.256982E-2,2.269045E-1,1.8584797E-1,2.3386092E-1,-1.2470622E-1,4.1121526E-5,-1.2586449E-1,6.1366566E-2,5.114158E-2,1.6465925E-1,1.6250567E-1,-2.0365603E-1],"categories":[],"categories_nodes":[],"categories_segments":[],"categories_sizes":[],"default_left":[0,0,0,0,0,0,0,0,0,0,0,0,0,0,0,0,0,0,0,0,0,0,0,0,0],"id":6,"left_children":[1,3,5,7,9,11,-1,13,15,17,19,21,23,-1,-1,-1,-1,-1,-1,-1,-1,-1,-1,-1,-1],"loss_changes":[3.974929E5,3.7004953E4,5.9763438E3,6.782095E4,5.537297E3,2.2364688E3,0E0,2.5016094E4,2.8242188E0,4.103578E3,9.905311E3,1.1467242E4,9.2484375E1,0E0,0E0,0E0,0E0,0E0,0E0,0E0,0E0,0E0,0E0,0E0,0E0],"parents":[2147483647,0,0,1,1,2,2,3,3,4,4,5,5,7,7,8,8,9,9,10,10,11,11,12,12],"right_children":[2,4,6,8,10,12,-1,14,16,18,20,22,24,-1,-1,-1,-1,-1,-1,-1,-1,-1,-1,-1,-1],"split_conditions":[1.0658262E0,-2.8057736E-1,5.568764E0,2.9746828E0,3.6300626E0,3.5865357E0,-1.3061851E-1,5.246756E0,-2.8469425E-1,9.1169304E-1,2.032796E-1,3.0802069E0,2.0676344E1,-7.256982E-2,2.269045E-1,1.8584797E-1,2.3386092E-1,-1.2470622E-1,4.1121526E-5,-1.2586449E-1,6.1366566E-2,5.114158E-2,1.6465925E-1,1.6250567E-1,-2.0365603E-1],"split_indices":[0,0,712,701,700,0,0,702,0,0,0,703,830,0,0,0,0,0,0,0,0,0,0,0,0],"split_type":[0,0,0,0,0,0,0,0,0,0,0,0,0,0,0,0,0,0,0,0,0,0,0,0,0],"sum_hessian":[3.4505538E5,2.2882136E5,1.1623401E5,1.05603586E5,1.2321778E5,1.15478016E5,7.5599615E2,9.324542E4,1.2358164E4,1.115277E5,1.1690079E4,4.5076848E4,7.0401164E4,9.03682E4,2.8772175E3,1.2331852E4,2.6313053E1,1.0882527E5,2.7024307E3,6.911855E3,4.7782236E3,1.2203304E4,3.2873543E4,7.039507E4,6.0970674E0],"tree_param":{"num_deleted":"0","num_feature":"1190","num_nodes":"25","size_leaf_vector":"1"}},{"base_weights":[-2.1182572E-2,-7.424111E-1,1.3937136E0,-3.174907E-1,-1.0958971E0,1.4106086E0,-1.2684014E-1,-5.934643E-1,1.7136592E0,-1.1215578E0,-3.9664812E-2,1.2495655E0,1.5176221E0,-8.736942E-2,4.9214397E-2,1.7883214E-1,1.709922E-1,-1.1747178E-1,-9.350615E-2,-1.4273688E-1,2.4893942E-1,4.8977952E-2,1.5461692E-1,1.5179591E-1,-2.1865165E-1],"categories":[],"categories_nodes":[],"categories_segments":[],"categories_sizes":[],"default_left":[0,0,0,0,0,0,0,0,0,0,0,0,0,0,0,0,0,0,0,0,0,0,0,0,0],"id":7,"left_children":[1,3,5,7,9,11,-1,13,15,17,19,21,23,-1,-1,-1,-1,-1,-1,-1,-1,-1,-1,-1,-1],"loss_changes":[3.3636822E5,3.279371E4,5.007328E3,5.5578258E4,3.2302656E3,1.904E3,0E0,2.6555635E4,2.5E-1,1.1524688E3,9.928235E3,9.94993E3,8.6234375E1,0E0,0E0,0E0,0E0,0E0,0E0,0E0,0E0,0E0,0E0,0E0,0E0],"parents":[2147483647,0,0,1,1,2,2,3,3,4,4,5,5,7,7,8,8,9,9,10,10,11,11,12,12],"right_children":[2,4,6,8,10,12,-1,14,16,18,20,22,24,-1,-1,-1,-1,-1,-1,-1,-1,-1,-1,-1,-1],"split_conditions":[1.0658262E0,-2.9292798E-1,5.568764E0,2.9746828E0,9.1169304E-1,3.5865357E0,-1.2684014E-1,-3.3222538E-1,-3.942903E-1,2.280432E-1,3.0874302E0,3.0802069E0,2.059126E1,-8.736942E-2,4.9214397E-2,1.7883214E-1,1.709922E-1,-1.1747178E-1,-9.350615E-2,-1.4273688E-1,2.4893942E-1,4.8977952E-2,1.5461692E-1,1.5179591E-1,-2.1865165E-1],"split_indices":[0,0,712,701,0,0,0,0,0,0,705,703,771,0,0,0,0,0,0,0,0,0,0,0,0],"split_type":[0,0,0,0,0,0,0,0,0,0,0,0,0,0,0,0,0,0,0,0,0,0,0,0,0],"sum_hessian":[3.29621E5,2.1833002E5,1.1129096E5,9.914779E4,1.1918223E5,1.1058958E5,7.013857E2,8.728855E4,1.1859242E4,1.1635535E5,2.826879E3,4.4154547E4,6.643503E4,6.9379664E4,1.790889E4,5.4255963E2,1.1316683E4,9.054162E4,2.5813736E4,1.8256007E3,1.0012782E3,1.2398065E4,3.175648E4,6.642958E4,5.452039E0],"tree_param":{"num_deleted":"0","num_feature":"1190","num_nodes":"25","size_leaf_vector":"1"}},{"base_weights":[-1.22121135E-2,-6.915117E-1,1.3097893E0,-2.898895E-1,-1.0575567E0,1.3254012E0,-1.23613015E-1,-1.125367E0,1.6943647E-1,-1.1416495E0,-3.087313E-1,1.3505882E0,7.289821E-2,-1.22382835E-1,-7.2230585E-2,2.8582765E-2,-1.4364603E-1,-1.1737251E-1,-1.1056887E-3,-1.2243437E-1,6.543239E-2,1.3551325E-1,-2.1429482E-1,-1.5886196E-1,1.0869362E-1],"categories":[],"categories_nodes":[],"categories_segments":[],"categories_sizes":[],"default_left":[0,0,0,0,0,0,0,0,0,0,0,0,0,0,0,0,0,0,0,0,0,0,0,0,0],"id":8,"left_children":[1,3,5,7,9,11,-1,13,15,17,19,21,23,-1,-1,-1,-1,-1,-1,-1,-1,-1,-1,-1,-1],"loss_changes":[2.840206E5,3.0713125E4,4.2684688E3,3.822976E4,6.882336E3,3.3658438E3,0E0,1.4015977E3,1.2015252E4,3.5634844E3,9.732583E3,1.6634062E3,3.5472466E3,0E0,0E0,0E0,0E0,0E0,0E0,0E0,0E0,0E0,0E0,0E0,0E0],"parents":[2147483647,0,0,1,1,2,2,3,3,4,4,5,5,7,7,8,8,9,9,10,10,11,11,12,12],"right_children":[2,4,6,8,10,12,-1,14,16,18,20,22,24,-1,-1,-1,-1,-1,-1,-1,-1,-1,-1,-1,-1],"split_conditions":[1.0658262E0,-2.8057736E-1,5.568764E0,-3.9522597E-1,3.6300626E0,3.9087899E0,-1.23613015E-1,-4.0233693E-1,3.0874302E0,9.1169304E-1,1.5961583E-1,3.645157E0,3.5865357E0,-1.22382835E-1,-7.2230585E-2,2.8582765E-2,-1.4364603E-1,-1.1737251E-1,-1.1056887E-3,-1.2243437E-1,6.543239E-2,1.3551325E-1,-2.1429482E-1,-1.5886196E-1,1.0869362E-1],"split_indices":[0,0,712,0,700,708,0,0,705,0,0,709,0,0,0,0,0,0,0,0,0,0,0,0,0],"split_type":[0,0,0,0,0,0,0,0,0,0,0,0,0,0,0,0,0,0,0,0,0,0,0,0,0],"sum_hessian":[3.1626694E5,2.0891708E5,1.0734985E5,9.961833E4,1.0929876E5,1.06696055E5,6.5379456E2,3.5338656E4,6.4279668E4,9.8263305E4,1.1035453E4,1.04592695E5,2.103363E3,2.8399174E4,6.939483E3,5.9936453E4,4.3432144E3,9.555239E4,2.7109116E3,5.656929E3,5.3785244E3,1.0445743E5,1.3526418E2,7.9696173E2,1.3064014E3],"tree_param":{"num_deleted":"0","num_feature":"1190","num_nodes":"25","size_leaf_vector":"1"}},{"base_weights":[-1.7015766E-2,-6.648495E-1,1.2380605E0,-2.9107046E-1,-1.0191543E0,1.2523972E0,-1.2083266E-1,-5.328926E-1,1.5859658E0,-1.0460824E0,-6.286504E-2,1.275095E0,1.9328181E-1,-6.276309E-2,1.9774562E-1,1.5827487E-1,3.108982E-1,-1.0723845E-1,-4.0881544E-2,-1.3444625E-1,2.0922068E-1,1.2803714E-1,-1.9021682E-1,-1.3722394E-1,1.06994145E-1],"categories":[],"categories_nodes":[],"categories_segments":[],"categories_sizes":[],"default_left":[0,0,0,0,0,0,0,0,0,0,0,0,0,0,0,0,0,0,0,0,0,0,0,0,0],"id":9,"left_children":[1,3,5,7,9,11,-1,13,15,17,19,21,23,-1,-1,-1,-1,-1,-1,-1,-1,-1,-1,-1,-1],"loss_changes":[2.4570344E5,2.6394688E4,3.6097812E3,4.4025902E4,2.6347812E3,2.4585156E3,0E0,2.0435797E4,4.9314453E1,1.667625E3,7.745586E3,1.6810938E3,2.9482502E3,0E0,0E0,0E0,0E0,0E0,0E0,0E0,0E0,0E0,0E0,0E0,0E0],"parents":[2147483647,0,0,1,1,2,2,3,3,4,4,5,5,7,7,8,8,9,9,10,10,11,11,12,12],"right_children":[2,4,6,8,10,12,-1,14,16,18,20,22,24,-1,-1,-1,-1,-1,-1,-1,-1,-1,-1,-1,-1],"split_conditions":[1.0658262E0,-2.8057736E-1,5.568764E0,2.9746828E0,9.1169304E-1,3.9087899E0,-1.2083266E-1,5.246756E0,2.482278E1,3.9087899E0,3.0874302E0,3.2359614E0,3.5865357E0,-6.276309E-2,1.9774562E-1,1.5827487E-1,3.108982E-1,-1.0723845E-1,-4.0881544E-2,-1.3444625E-1,2.0922068E-1,1.2803714E-1,-1.9021682E-1,-1.3722394E-1,1.06994145E-1],"split_indices":[0,0,712,701,0,708,0,702,1012,708,705,706,0,0,0,0,0,0,0,0,0,0,0,0,0],"split_type":[0,0,0,0,0,0,0,0,0,0,0,0,0,0,0,0,0,0,0,0,0,0,0,0,0],"sum_hessian":[3.0218622E5,1.9930914E5,1.0287709E5,9.698996E4,1.0231917E5,1.02278195E5,5.988983E2,8.592128E4,1.1068684E4,9.951679E4,2.8023875E3,1.0013206E5,2.1461287E3,8.2797336E4,3.1239443E3,1.1047389E4,2.1295277E1,9.5571555E4,3.9452305E3,1.7575613E3,1.0448262E3,9.996665E4,1.6541266E2,7.70184E2,1.3759446E3],"tree_param":{"num_deleted":"0","num_feature":"1190","num_nodes":"25","size_leaf_vector":"1"}},{"base_weights":[-1.5211248E-2,-6.180718E-1,1.1726485E0,-2.3448975E-1,-9.843546E-1,9.819432E-1,1.3034357E0,-1.0745869E0,2.0498836E-1,-1.0673121E0,-2.6906106E-1,1.6768768E-1,1.3530782E0,1.3111688E0,9.393697E-1,-1.13825046E-1,3.1609688E-2,3.1396758E-2,-1.4258586E-1,-1.0976001E-1,-6.9135227E-3,-1.1797895E-1,6.3021384E-2,-5.6234594E-2,1.3285363E-1,8.9720875E-2,1.3668214E-1,1.311648E-1,-2.3105912E-1,-3.0204618E-1,1.1862066E-1],"categories":[],"categories_nodes":[],"categories_segments":[],"categories_sizes":[],"default_left":[0,0,0,0,0,0,0,0,0,0,0,0,0,0,0,0,0,0,0,0,0,0,0,0,0,0,0,0,0,0,0],"id":10,"left_children":[1,3,5,7,9,11,13,15,17,19,21,23,25,27,29,-1,-1,-1,-1,-1,-1,-1,-1,-1,-1,-1,-1,-1,-1,-1,-1],"loss_changes":[2.062931E5,2.6847945E4,2.417625E3,3.446269E4,5.8000625E3,1.1923809E4,1.6071875E2,2.8387578E3,1.0892407E4,2.6480312E3,8.321605E3,1.0471063E4,1.6858203E2,1.0078906E2,1.1765137E3,0E0,0E0,0E0,0E0,0E0,0E0,0E0,0E0,0E0,0E0,0E0,0E0,0E0,0E0,0E0,0E0],"parents":[2147483647,0,0,1,1,2,2,3,3,4,4,5,5,6,6,7,7,8,8,9,9,10,10,11,11,12,12,13,13,14,14],"right_children":[2,4,6,8,10,12,14,16,18,20,22,24,26,28,30,-1,-1,-1,-1,-1,-1,-1,-1,-1,-1,-1,-1,-1,-1,-1,-1],"split_conditions":[1.0658262E0,-2.8874874E-1,3.5865357E0,-3.9522597E-1,3.6300626E0,3.0802069E0,3.9087899E0,3.2359614E0,3.50619E0,9.1169304E-1,1.5961583E-1,3.576641E0,1.2192732E0,1.4469367E1,9.0920585E-1,-1.13825046E-1,3.1609688E-2,3.1396758E-2,-1.4258586E-1,-1.0976001E-1,-6.9135227E-3,-1.1797895E-1,6.3021384E-2,-5.6234594E-2,1.3285363E-1,8.9720875E-2,1.3668214E-1,1.311648E-1,-2.3105912E-1,-3.0204618E-1,1.1862066E-1],"split_indices":[0,0,0,0,700,703,708,706,710,0,0,699,0,1185,713,0,0,0,0,0,0,0,0,0,0,0,0,0,0,0,0],"split_type":[0,0,0,0,0,0,0,0,0,0,0,0,0,0,0,0,0,0,0,0,0,0,0,0,0,0,0,0,0,0,0],"sum_hessian":[2.8807106E5,1.910899E5,9.698114E4,9.3341555E4,9.774836E4,3.94566E4,5.752454E4,3.2058244E4,6.128331E4,8.7589516E4,1.0158843E4,1.235396E4,2.7102643E4,5.6325527E4,1.1990121E3,3.0655076E4,1.4031666E3,5.7445406E4,3.837906E3,8.500993E4,2.5795852E3,5.047124E3,5.1117188E3,7.584648E3,4.769312E3,7.950942E2,2.6307549E4,5.6318715E4,6.813864E0,6.969572E1,1.1293163E3],"tree_param":{"num_deleted":"0","num_feature":"1190","num_nodes":"31","size_leaf_vector":"1"}},{"base_weights":[-1.2344055E-2,-8.349938E-2,4.181884E-1,-1.7610934E-1,3.682143E-1,2.064314E-1,6.020486E-1,-2.4070156E-1,3.1391558E-1,2.6198354E-1,4.6365657E-1,2.1496321E-1,-1.344862E-1,6.054449E-1,-1.3308759E-1,-2.0147769E-2,-6.7250125E-2,1.3909161E-2,4.760819E-2,2.695517E-2,-1.2763794E-1,4.5895316E-2,1.7282066E-1,2.2109065E-2,-1.4816743E-1,6.083815E-2,-1.2598936E-1],"categories":[],"categories_nodes":[],"categories_segments":[],"categories_sizes":[],"default_left":[0,0,0,0,0,0,0,0,0,0,0,0,0,0,0,0,0,0,0,0,0,0,0,0,0,0,0],"id":11,"left_children":[1,3,5,7,9,11,13,15,17,19,21,23,-1,25,-1,-1,-1,-1,-1,-1,-1,-1,-1,-1,-1,-1,-1],"loss_changes":[8.443705E3,9.894998E3,1.5218916E3,6.2130244E3,4.079038E2,2.4076843E2,1.3816943E2,2.9372354E3,6.480547E2,2.2210791E2,1.2528027E2,1.8819348E2,0E0,1.1518652E2,0E0,0E0,0E0,0E0,0E0,0E0,0E0,0E0,0E0,0E0,0E0,0E0,0E0],"parents":[2147483647,0,0,1,1,2,2,3,3,4,4,5,5,6,6,7,7,8,8,9,9,10,10,11,11,13,13],"right_children":[2,4,6,8,10,12,14,16,18,20,22,24,-1,26,-1,-1,-1,-1,-1,-1,-1,-1,-1,-1,-1,-1,-1],"split_conditions":[3.50619E0,3.0802069E0,1.0998609E0,4.414613E0,1.0998609E0,1.9346154E0,1.6790815E1,3.6300626E0,1.0998609E0,1.293829E1,4.8992348E1,1.3874606E1,-1.344862E-1,1.6679781E1,-1.3308759E-1,-2.0147769E-2,-6.7250125E-2,1.3909161E-2,4.760819E-2,2.695517E-2,-1.2763794E-1,4.5895316E-2,1.7282066E-1,2.2109065E-2,-1.4816743E-1,6.083815E-2,-1.2598936E-1],"split_indices":[710,703,714,707,714,4,1085,700,714,1142,965,1134,0,1153,0,0,0,0,0,0,0,0,0,0,0,0,0],"split_type":[0,0,0,0,0,0,0,0,0,0,0,0,0,0,0,0,0,0,0,0,0,0,0,0,0,0,0],"sum_hessian":[2.756236E5,2.3653208E5,3.909152E4,1.9628956E5,4.024251E4,1.8168482E4,2.0923037E4,1.734296E5,2.2859969E4,1.9046645E4,2.119587E4,1.8069963E4,9.851984E1,2.0887023E4,3.6013763E1,1.589888E5,1.4440786E4,1.1001558E4,1.1858411E4,1.895422E4,9.242285E1,2.1118682E4,7.7187035E1,1.8005805E4,6.415843E1,2.0854865E4,3.2158092E1],"tree_param":{"num_deleted":"0","num_feature":"1190","num_nodes":"27","size_leaf_vector":"1"}},{"base_weights":[-1.2138605E-2,-5.7083166E-1,1.109457E0,-2.0424353E-1,-9.548682E-1,1.1232184E0,-1.1749973E-1,-1.0705291E0,1.480822E-1,-1.0491252E0,-1.6384487E-1,1.1459074E0,3.598839E-2,-1.15092956E-1,4.8831716E-2,2.6717333E-2,-1.3329315E-1,-1.0885724E-1,-1.2262352E-2,-1.1597043E-1,6.5896995E-2,1.1508051E-1,-2.3161161E-1,6.9960944E-2,-1.6137904E-1],"categories":[],"categories_nodes":[],"categories_segments":[],"categories_sizes":[],"default_left":[0,0,0,0,0,0,0,0,0,0,0,0,0,0,0,0,0,0,0,0,0,0,0,0,0],"id":12,"left_children":[1,3,5,7,9,11,-1,13,15,17,19,21,23,-1,-1,-1,-1,-1,-1,-1,-1,-1,-1,-1,-1],"loss_changes":[1.709813E5,2.5641238E4,2.8534688E3,2.844166E4,6.6318984E3,2.2246016E3,0E0,3.3772441E3,1.1684239E4,2.904664E3,7.7620347E3,1.5005547E3,2.020589E3,0E0,0E0,0E0,0E0,0E0,0E0,0E0,0E0,0E0,0E0,0E0,0E0],"parents":[2147483647,0,0,1,1,2,2,3,3,4,4,5,5,7,7,8,8,9,9,10,10,11,11,12,12],"right_children":[2,4,6,8,10,12,-1,14,16,18,20,22,24,-1,-1,-1,-1,-1,-1,-1,-1,-1,-1,-1,-1],"split_conditions":[1.0658262E0,-2.8057736E-1,5.568764E0,-3.9878145E-1,3.6300626E0,3.9087899E0,-1.1749973E-1,3.2359614E0,3.1802278E0,8.6079365E-1,1.5961583E-1,3.6300626E0,-2.8598E-1,-1.15092956E-1,4.8831716E-2,2.6717333E-2,-1.3329315E-1,-1.0885724E-1,-1.2262352E-2,-1.1597043E-1,6.5896995E-2,1.1508051E-1,-2.3161161E-1,6.9960944E-2,-1.6137904E-1],"split_indices":[0,0,712,0,700,708,0,706,711,0,0,700,3,0,0,0,0,0,0,0,0,0,0,0,0],"split_type":[0,0,0,0,0,0,0,0,0,0,0,0,0,0,0,0,0,0,0,0,0,0,0,0,0],"sum_hessian":[2.7285747E5,1.8213317E5,9.0724305E4,9.3184234E4,8.894894E4,9.018156E4,5.427363E2,2.6940898E4,6.624333E4,7.947813E4,9.470805E3,8.8338016E4,1.8435457E3,2.5619771E4,1.3211283E3,6.1313793E4,4.9295396E3,7.623225E4,3.2458835E3,4.2846494E3,5.1861553E3,8.821389E4,1.24130844E2,1.3151176E3,5.284281E2],"tree_param":{"num_deleted":"0","num_feature":"1190","num_nodes":"25","size_leaf_vector":"1"}},{"base_weights":[-1.9680869E-2,-5.501446E-1,1.0600439E0,-2.04376E-1,-9.125245E-1,1.0729903E0,-1.1555059E-1,-4.3952757E-1,1.4855332E0,-1.0149114E0,-6.577537E-1,8.8758796E-1,1.2038697E0,-6.873396E-2,4.13696E-2,1.6994272E-1,1.4769617E-1,-1.0792074E-1,-2.3365188E-2,-4.133894E-2,-1.208898E-1,1.1033262E-2,1.2587653E-1,1.212044E-1,8.40191E-2],"categories":[],"categories_nodes":[],"categories_segments":[],"categories_sizes":[],"default_left":[0,0,0,0,0,0,0,0,0,0,0,0,0,0,0,0,0,0,0,0,0,0,0,0,0],"id":13,"left_children":[1,3,5,7,9,11,-1,13,15,17,19,21,23,-1,-1,-1,-1,-1,-1,-1,-1,-1,-1,-1,-1],"loss_changes":[1.4863253E5,2.1803562E4,2.4534219E3,3.5387234E4,2.215664E3,2.061375E3,0E0,1.6528877E4,1.7433594E1,3.0441133E3,3.2802969E3,1.0147984E4,1.4709375E2,0E0,0E0,0E0,0E0,0E0,0E0,0E0,0E0,0E0,0E0,0E0,0E0],"parents":[2147483647,0,0,1,1,2,2,3,3,4,4,5,5,7,7,8,8,9,9,10,10,11,11,12,12],"right_children":[2,4,6,8,10,12,-1,14,16,18,20,22,24,-1,-1,-1,-1,-1,-1,-1,-1,-1,-1,-1,-1],"split_conditions":[1.0658262E0,-2.8874874E-1,5.568764E0,2.9746828E0,2.032796E-1,3.5865357E0,-1.1555059E-1,-3.2848278E-1,-3.9522597E-1,3.645157E0,3.0802069E0,3.0802069E0,3.9087899E0,-6.873396E-2,4.13696E-2,1.6994272E-1,1.4769617E-1,-1.0792074E-1,-2.3365188E-2,-4.133894E-2,-1.208898E-1,1.1033262E-2,1.2587653E-1,1.212044E-1,8.40191E-2],"split_indices":[0,0,712,701,0,0,0,0,0,709,703,703,708,0,0,0,0,0,0,0,0,0,0,0,0],"split_type":[0,0,0,0,0,0,0,0,0,0,0,0,0,0,0,0,0,0,0,0,0,0,0,0,0],"sum_hessian":[2.5950261E5,1.7401188E5,8.549073E4,8.9047664E4,8.496421E4,8.4994586E4,4.9614026E2,7.817089E4,1.0876772E4,6.060527E4,2.435894E4,3.517453E4,4.982006E4,6.057698E4,1.7593912E4,4.1148203E2,1.046529E4,5.5996496E4,4.6087744E3,1.6877572E4,7.481367E3,1.1368947E4,2.3805584E4,4.8722594E4,1.0974672E3],"tree_param":{"num_deleted":"0","num_feature":"1190","num_nodes":"25","size_leaf_vector":"1"}},{"base_weights":[-1.331902E-2,-5.0205463E-1,1.0454886E0,-1.915214E-1,-8.407194E-1,1.0581778E0,-1.1379912E-1,-4.063091E-1,1.420473E0,-9.354883E-1,-7.84836E-2,1.0795649E0,1.1289646E-1,-9.228698E-2,-1.7590442E-3,1.4170258E-1,2.9063734E-1,-1.0195742E-1,1.3752592E-2,-1.1275729E-1,6.3455015E-2,9.362968E-2,1.1734853E-1,-1.3825767E-1,8.359413E-2],"categories":[],"categories_nodes":[],"categories_segments":[],"categories_sizes":[],"default_left":[0,0,0,0,0,0,0,0,0,0,0,0,0,0,0,0,0,0,0,0,0,0,0,0,0],"id":14,"left_children":[1,3,5,7,9,11,-1,13,15,17,19,21,23,-1,-1,-1,-1,-1,-1,-1,-1,-1,-1,-1,-1],"loss_changes":[1.27984945E5,1.7795742E4,2.165336E3,3.056486E4,5.84684E3,1.5698828E3,0E0,1.564151E4,4.904492E1,6.495543E3,6.6969326E3,1.02072656E3,1.8601821E3,0E0,0E0,0E0,0E0,0E0,0E0,0E0,0E0,0E0,0E0,0E0,0E0],"parents":[2147483647,0,0,1,1,2,2,3,3,4,4,5,5,7,7,8,8,9,9,10,10,11,11,12,12],"right_children":[2,4,6,8,10,12,-1,14,16,18,20,22,24,-1,-1,-1,-1,-1,-1,-1,-1,-1,-1,-1,-1],"split_conditions":[1.2192732E0,-2.8057736E-1,5.568764E0,2.9746828E0,3.6300626E0,3.9087899E0,-1.1379912E-1,-3.8792786E-1,2.482278E1,9.1169304E-1,1.5961583E-1,3.5865357E0,3.5865357E0,-9.228698E-2,-1.7590442E-3,1.4170258E-1,2.9063734E-1,-1.0195742E-1,1.3752592E-2,-1.1275729E-1,6.3455015E-2,9.362968E-2,1.1734853E-1,-1.3825767E-1,8.359413E-2],"split_indices":[0,0,712,701,700,708,0,0,1012,0,0,0,0,0,0,0,0,0,0,0,0,0,0,0,0],"split_type":[0,0,0,0,0,0,0,0,0,0,0,0,0,0,0,0,0,0,0,0,0,0,0,0,0],"sum_hessian":[2.4732288E5,1.6921523E5,7.810763E4,8.827471E4,8.094052E4,7.765685E4,4.5078806E2,7.789629E4,1.0378422E4,7.19898E4,8.9507295E3,7.5938586E4,1.7182607E3,3.3447363E4,4.4448926E4,1.035635E4,2.2072794E1,6.6758375E4,5.23142E3,3.62163E3,5.3290996E3,3.0073984E4,4.58646E4,5.59707E2,1.1585537E3],"tree_param":{"num_deleted":"0","num_feature":"1190","num_nodes":"25","size_leaf_vector":"1"}},{"base_weights":[-1.15965735E-2,-6.48742E-2,3.133107E-1,-1.2542793E-1,2.5362456E-1,3.941979E-1,2.2526751E-1,-1.4573732E-1,4.065943E-1,4.338244E-1,5.366345E-2,3.892286E-1,1.7175226E0,2.3170096E-1,-1.2181314E-1,-1.1667744E-2,-4.7304362E-2,3.840198E-2,4.01702E-1,4.3725345E-2,-1.4502104E-1,4.4732317E-3,1.0809835E-1,3.9203003E-2,-1.1525496E-1,1.1574862E-1,2.584937E-1,5.1236864E-2,2.0607922E-2],"categories":[],"categories_nodes":[],"categories_segments":[],"categories_sizes":[],"default_left":[0,0,0,0,0,0,0,0,0,0,0,0,0,0,0,0,0,0,0,0,0,0,0,0,0,0,0,0,0],"id":15,"left_children":[1,3,5,7,9,11,13,15,17,19,21,23,25,27,-1,-1,-1,-1,-1,-1,-1,-1,-1,-1,-1,-1,-1,-1,-1],"loss_changes":[4.0578843E3,3.884207E3,2.3509766E2,1.8285254E3,1.1592776E3,1.1250635E2,1.4714166E2,1.5503328E3,5.0562622E2,1.0996265E2,1.398872E2,7.451343E1,2.8143188E1,1.1312537E2,0E0,0E0,0E0,0E0,0E0,0E0,0E0,0E0,0E0,0E0,0E0,0E0,0E0,0E0,0E0],"parents":[2147483647,0,0,1,1,2,2,3,3,4,4,5,5,6,6,7,7,8,8,9,9,10,10,11,11,12,12,13,13],"right_children":[2,4,6,8,10,12,14,16,18,20,22,24,26,28,-1,-1,-1,-1,-1,-1,-1,-1,-1,-1,-1,-1,-1,-1,-1],"split_conditions":[3.0802069E0,3.50619E0,9.0920585E-1,5.568764E0,9.0920585E-1,4.8992348E1,1.293829E1,3.6300626E0,2.2616802E1,2.0483864E1,3.497761E1,2.0483864E1,2.2807272E1,-2.0841062E0,-1.2181314E-1,-1.1667744E-2,-4.7304362E-2,3.840198E-2,4.01702E-1,4.3725345E-2,-1.4502104E-1,4.4732317E-3,1.0809835E-1,3.9203003E-2,-1.1525496E-1,1.1574862E-1,2.584937E-1,5.1236864E-2,2.0607922E-2],"split_indices":[703,710,713,712,713,965,1142,700,1030,834,1036,834,100,2,0,0,0,0,0,0,0,0,0,0,0,0,0,0,0],"split_type":[0,0,0,0,0,0,0,0,0,0,0,0,0,0,0,0,0,0,0,0,0,0,0,0,0,0,0,0,0],"sum_hessian":[2.344182E5,2.0139472E5,3.3023492E4,1.6922238E5,3.2172346E4,1.7209379E4,1.5814111E4,1.6300072E5,6.221656E3,1.6921738E4,1.5250607E4,1.7146287E4,6.3092773E1,1.5744774E4,6.933728E1,1.4971006E5,1.3290646E4,6.184095E3,3.7560246E1,1.6891762E4,2.9976084E1,1.5120202E4,1.3040584E2,1.7115934E4,3.0353977E1,3.975792E1,2.3334854E1,1.315494E3,1.442928E4],"tree_param":{"num_deleted":"0","num_feature":"1190","num_nodes":"29","size_leaf_vector":"1"}},{"base_weights":[-2.0095857E-2,-4.9029186E-1,9.7089285E-1,-1.7904928E-1,-8.556357E-1,7.621797E-1,1.1236557E0,-3.8263276E-1,1.3673952E0,-9.733258E-1,2.2290614E-2,5.804905E-3,1.1956859E0,1.1265664E0,-1.13294736E-1,-4.6799447E-2,1.6939698E-1,1.3645701E-1,2.4346498E-1,-1.0223277E-1,-1.3795868E-2,-1.1086126E-1,6.64905E-2,-6.484225E-2,1.102374E-1,6.1749805E-2,1.2135597E-1,1.1270644E-1,-3.901601E-1],"categories":[],"categories_nodes":[],"categories_segments":[],"categories_sizes":[],"default_left":[0,0,0,0,0,0,0,0,0,0,0,0,0,0,0,0,0,0,0,0,0,0,0,0,0,0,0,0,0],"id":16,"left_children":[1,3,5,7,9,11,13,15,17,19,21,23,25,27,-1,-1,-1,-1,-1,-1,-1,-1,-1,-1,-1,-1,-1,-1,-1],"loss_changes":[1.0844438E5,1.7948164E4,2.386961E3,2.6834479E4,7.502332E3,1.0378783E4,2.8528516E2,1.335193E4,2.6576172E1,2.6207695E3,6.239094E3,8.274584E3,2.0718945E2,1.1252734E2,0E0,0E0,0E0,0E0,0E0,0E0,0E0,0E0,0E0,0E0,0E0,0E0,0E0,0E0,0E0],"parents":[2147483647,0,0,1,1,2,2,3,3,4,4,5,5,6,6,7,7,8,8,9,9,10,10,11,11,12,12,13,13],"right_children":[2,4,6,8,10,12,14,16,18,20,22,24,26,28,-1,-1,-1,-1,-1,-1,-1,-1,-1,-1,-1,-1,-1,-1,-1],"split_conditions":[1.0658262E0,-2.8057736E-1,3.5865357E0,2.9746828E0,3.6300626E0,3.0802069E0,5.568764E0,5.246756E0,2.482278E1,8.1787837E-1,1.3422847E-1,3.576641E0,1.2192732E0,1.7701567E1,-1.13294736E-1,-4.6799447E-2,1.6939698E-1,1.3645701E-1,2.4346498E-1,-1.0223277E-1,-1.3795868E-2,-1.1086126E-1,6.64905E-2,-6.484225E-2,1.102374E-1,6.1749805E-2,1.2135597E-1,1.1270644E-1,-3.901601E-1],"split_indices":[0,0,0,701,700,703,712,702,1012,0,0,699,0,884,0,0,0,0,0,0,0,0,0,0,0,0,0,0,0],"split_type":[0,0,0,0,0,0,0,0,0,0,0,0,0,0,0,0,0,0,0,0,0,0,0,0,0,0,0,0,0],"sum_hessian":[2.3273175E5,1.5784112E5,7.489063E4,8.5232016E4,7.26091E4,3.1651959E4,4.323867E4,7.531751E4,9.914508E3,6.402601E4,8.583092E3,1.1532044E4,2.0119914E4,4.3183473E4,5.51994E1,7.234446E4,2.9730479E3,9.8906045E3,2.3902887E1,6.0478195E4,3.5478164E3,3.109725E3,5.4733667E3,7.223073E3,4.3089707E3,6.0439484E2,1.951552E4,4.3179973E4,3.5007734E0],"tree_param":{"num_deleted":"0","num_feature":"1190","num_nodes":"29","size_leaf_vector":"1"}},{"base_weights":[-1.0529036E-2,-4.4812515E-1,9.335071E-1,-1.4541784E-1,-8.210613E-1,7.232039E-1,1.0887032E0,-9.4814724E-1,1.51597E-1,-9.3025094E-1,-2.834347E-2,-1.6679516E-2,1.1698942E0,1.0915511E0,-1.1152331E-1,-1.0455245E-1,7.485663E-2,2.5331667E-2,-1.3501361E-1,-9.803219E-2,1.0863241E-2,-1.097149E-1,5.405121E-2,-6.061216E-2,1.0367247E-1,6.1788846E-2,1.1887157E-1,1.10241294E-1,6.693819E-2],"categories":[],"categories_nodes":[],"categories_segments":[],"categories_sizes":[],"default_left":[0,0,0,0,0,0,0,0,0,0,0,0,0,0,0,0,0,0,0,0,0,0,0,0,0,0,0,0,0],"id":17,"left_children":[1,3,5,7,9,11,13,15,17,19,21,23,25,27,-1,-1,-1,-1,-1,-1,-1,-1,-1,-1,-1,-1,-1,-1,-1],"loss_changes":[9.141733E4,1.7069344E4,2.2867812E3,1.9899229E4,5.8636055E3,9.836847E3,2.5432812E2,3.7250469E3,9.306429E3,3.0973516E3,4.9876157E3,6.9584204E3,1.9208594E2,1.8394531E2,0E0,0E0,0E0,0E0,0E0,0E0,0E0,0E0,0E0,0E0,0E0,0E0,0E0,0E0,0E0],"parents":[2147483647,0,0,1,1,2,2,3,3,4,4,5,5,6,6,7,7,8,8,9,9,10,10,11,11,12,12,13,13],"right_children":[2,4,6,8,10,12,14,16,18,20,22,24,26,28,-1,-1,-1,-1,-1,-1,-1,-1,-1,-1,-1,-1,-1,-1,-1],"split_conditions":[1.0658262E0,-2.8057736E-1,3.5865357E0,-3.9790815E-1,3.6300626E0,3.0802069E0,5.568764E0,3.2359614E0,3.50619E0,3.9087899E0,1.3422847E-1,3.576641E0,1.2192732E0,3.9087899E0,-1.1152331E-1,-1.0455245E-1,7.485663E-2,2.5331667E-2,-1.3501361E-1,-9.803219E-2,1.0863241E-2,-1.097149E-1,5.405121E-2,-6.061216E-2,1.0367247E-1,6.1788846E-2,1.1887157E-1,1.10241294E-1,6.693819E-2],"split_indices":[0,0,0,0,700,703,712,706,710,708,0,699,0,708,0,0,0,0,0,0,0,0,0,0,0,0,0,0,0],"split_type":[0,0,0,0,0,0,0,0,0,0,0,0,0,0,0,0,0,0,0,0,0,0,0,0,0,0,0,0,0],"sum_hessian":[2.2129036E5,1.5120275E5,7.008762E4,8.346042E4,6.774233E4,2.9762586E4,4.032503E4,2.2540088E4,6.0920332E4,5.9540934E4,8.2013955E3,1.1204604E4,1.8557982E4,4.0273496E4,5.153657E1,2.131705E4,1.2230374E3,5.7056453E4,3.8638796E3,5.6803254E4,2.737681E3,2.848502E3,5.3528936E3,7.1847407E3,4.0198633E3,6.130129E2,1.7944969E4,3.926173E4,1.01176215E3],"tree_param":{"num_deleted":"0","num_feature":"1190","num_nodes":"29","size_leaf_vector":"1"}},{"base_weights":[-1.3650064E-2,-4.4129005E-1,8.924169E-1,-1.4118993E-1,-8.192603E-1,6.777589E-1,1.0602494E0,-3.2329425E-1,1.3096273E0,-9.3237466E-1,-4.4987038E-2,7.779487E-1,-2.219E0,1.0629562E0,-1.0993196E-1,-5.668162E-2,4.1263517E-2,1.4735381E-1,1.303251E-1,-1.0036961E-1,-9.065809E-3,-1.0986819E-1,5.149382E-2,8.890343E-2,-1.9069667E-1,-1.4186154E-1,-2.2806826E-1,1.074212E-1,6.654317E-2],"categories":[],"categories_nodes":[],"categories_segments":[],"categories_sizes":[],"default_left":[0,0,0,0,0,0,0,0,0,0,0,0,0,0,0,0,0,0,0,0,0,0,0,0,0,0,0,0,0],"id":18,"left_children":[1,3,5,7,9,11,13,15,17,19,21,23,25,27,-1,-1,-1,-1,-1,-1,-1,-1,-1,-1,-1,-1,-1,-1,-1],"loss_changes":[8.198351E4,1.6304533E4,2.4434375E3,2.1169895E4,5.5716836E3,8.642194E3,2.2372266E2,1.2758853E4,7.419922E0,3.332207E3,4.7855786E3,8.584598E3,4.5913574E1,1.6942578E2,0E0,0E0,0E0,0E0,0E0,0E0,0E0,0E0,0E0,0E0,0E0,0E0,0E0,0E0,0E0],"parents":[2147483647,0,0,1,1,2,2,3,3,4,4,5,5,6,6,7,7,8,8,9,9,10,10,11,11,12,12,13,13],"right_children":[2,4,6,8,10,12,14,16,18,20,22,24,26,28,-1,-1,-1,-1,-1,-1,-1,-1,-1,-1,-1,-1,-1,-1,-1],"split_conditions":[9.748184E-1,-2.8874874E-1,3.5865357E0,2.9746828E0,3.6300626E0,3.50619E0,5.568764E0,-3.2848278E-1,-3.9522597E-1,3.645157E0,1.5961583E-1,3.1802278E0,1.0658262E0,3.9087899E0,-1.0993196E-1,-5.668162E-2,4.1263517E-2,1.4735381E-1,1.303251E-1,-1.0036961E-1,-9.065809E-3,-1.0986819E-1,5.149382E-2,8.890343E-2,-1.9069667E-1,-1.4186154E-1,-2.2806826E-1,1.074212E-1,6.654317E-2],"split_indices":[0,0,0,701,700,710,712,0,0,709,0,711,0,708,0,0,0,0,0,0,0,0,0,0,0,0,0,0,0],"split_type":[0,0,0,0,0,0,0,0,0,0,0,0,0,0,0,0,0,0,0,0,0,0,0,0,0,0,0,0,0],"sum_hessian":[2.1158442E5,1.4374231E5,6.784211E4,8.0125664E4,6.3616652E4,2.977056E4,3.807155E4,7.1190695E4,8.934969E3,5.550733E4,8.109324E3,2.877602E4,9.945403E2,3.80244E4,4.715269E1,5.3490656E4,1.7700041E4,3.259543E2,8.609015E3,5.1171227E4,4.3360996E3,2.8135967E3,5.295727E3,2.7633385E4,1.1426338E3,7.287832E1,9.21662E2,3.6975746E4,1.048654E3],"tree_param":{"num_deleted":"0","num_feature":"1190","num_nodes":"29","size_leaf_vector":"1"}},{"base_weights":[-5.9207575E-3,2.6759522E-2,-5.4378265E-1,6.186439E-2,-5.03482E-1,-6.783961E-1,-4.3656173E-1,1.0474995E-1,-2.6830488E-1,-8.313144E-1,-2.8485417E-1,-1.0684545E0,-5.6393546E-1,-4.5162645E-1,9.770213E-1,1.4414682E-2,-3.1252813E-2,-1.5668755E-2,-3.5081755E-2,-8.472528E-2,2.1070404E-1,-4.528233E-2,2.177344E-2,-1.14857316E-1,8.2778506E-2,-3.838737E-2,-7.5094424E-2,-5.174742E-2,-1.2632842E-2,8.2738385E-2,1.2887771E-1],"categories":[],"categories_nodes":[],"categories_segments":[],"categories_sizes":[],"default_left":[0,0,0,0,0,0,0,0,0,0,0,0,0,0,0,0,0,0,0,0,0,0,0,0,0,0,0,0,0,0,0],"id":19,"left_children":[1,3,5,7,9,11,13,15,17,19,21,23,25,27,29,-1,-1,-1,-1,-1,-1,-1,-1,-1,-1,-1,-1,-1,-1,-1,-1],"loss_changes":[3.5508472E3,3.5448984E3,1.6671338E2,2.5291387E3,8.473281E2,2.2836206E2,1.3766016E2,2.5988481E3,1.8905615E2,2.2333081E2,5.991225E2,1.7754236E2,1.3329407E2,1.3651819E2,2.118164E0,0E0,0E0,0E0,0E0,0E0,0E0,0E0,0E0,0E0,0E0,0E0,0E0,0E0,0E0,0E0,0E0],"parents":[2147483647,0,0,1,1,2,2,3,3,4,4,5,5,6,6,7,7,8,8,9,9,10,10,11,11,12,12,13,13,14,14],"right_children":[2,4,6,8,10,12,14,16,18,20,22,24,26,28,30,-1,-1,-1,-1,-1,-1,-1,-1,-1,-1,-1,-1,-1,-1,-1,-1],"split_conditions":[3.576641E0,3.6300626E0,9.0920585E-1,3.1802278E0,9.0920585E-1,-5.7532144E-1,2.0493862E1,3.0874302E0,9.0920585E-1,2.505072E1,7.6537377E-1,2.9028265E1,-2.868576E-1,5.538736E-2,2.5921001E1,1.4414682E-2,-3.1252813E-2,-1.5668755E-2,-3.5081755E-2,-8.472528E-2,2.1070404E-1,-4.528233E-2,2.177344E-2,-1.14857316E-1,8.2778506E-2,-3.838737E-2,-7.5094424E-2,-5.174742E-2,-1.2632842E-2,8.2738385E-2,1.2887771E-1],"split_indices":[699,700,713,711,713,1,760,705,713,849,2,1024,3,3,139,0,0,0,0,0,0,0,0,0,0,0,0,0,0,0,0],"split_type":[0,0,0,0,0,0,0,0,0,0,0,0,0,0,0,0,0,0,0,0,0,0,0,0,0,0,0,0,0,0,0],"sum_hessian":[2.0200938E5,1.904393E5,1.1570067E4,1.786149E5,1.1824394E4,5.1274023E3,6.4426655E3,1.5808234E5,2.053257E4,4.7295825E3,7.094811E3,1.1613668E3,3.9660354E3,6.375403E3,6.726277E1,1.4444534E5,1.3637001E4,8.728359E3,1.180421E4,4.7047744E3,2.480824E1,5.3176943E3,1.7771168E3,1.114665E3,4.6701828E1,2.022102E3,1.9439333E3,5.3016387E3,1.0737638E3,4.791726E1,1.934551E1],"tree_param":{"num_deleted":"0","num_feature":"1190","num_nodes":"31","size_leaf_vector":"1"}},{"base_weights":[-1.9685936E-3,-3.990534E-1,8.7361246E-1,-1.2854715E-1,-7.70833E-1,6.680029E-1,1.0320805E0,-2.8986424E-1,1.2641579E0,-8.835604E-1,-1.7425687E-3,-1.0155914E-2,1.1301212E0,1.0347894E0,-1.087081E-1,-9.702202E-2,-3.0657658E-3,1.2658988E-1,-9.405959E-2,-9.489044E-2,-1.1401707E-2,-1.07340895E-1,4.406887E-2,-4.7726035E-2,1.4231198E-1,5.520419E-2,1.15068175E-1,1.0354574E-1,-3.5468978E-1],"categories":[],"categories_nodes":[],"categories_segments":[],"categories_sizes":[],"default_left":[0,0,0,0,0,0,0,0,0,0,0,0,0,0,0,0,0,0,0,0,0,0,0,0,0,0,0,0,0],"id":20,"left_children":[1,3,5,7,9,11,13,15,17,19,21,23,25,27,-1,-1,-1,-1,-1,-1,-1,-1,-1,-1,-1,-1,-1,-1,-1],"loss_changes":[7.023841E4,1.3977729E4,2.0530625E3,1.8075445E4,5.074949E3,8.598876E3,2.0546484E2,1.271536E4,3.324414E1,2.5671016E3,3.548923E3,7.4459707E3,1.9331836E2,1.1246094E2,0E0,0E0,0E0,0E0,0E0,0E0,0E0,0E0,0E0,0E0,0E0,0E0,0E0,0E0,0E0],"parents":[2147483647,0,0,1,1,2,2,3,3,4,4,5,5,6,6,7,7,8,8,9,9,10,10,11,11,12,12,13,13],"right_children":[2,4,6,8,10,12,14,16,18,20,22,24,26,28,-1,-1,-1,-1,-1,-1,-1,-1,-1,-1,-1,-1,-1,-1,-1],"split_conditions":[1.0658262E0,-2.7234364E-1,3.5865357E0,2.9746828E0,3.6300626E0,3.0802069E0,5.568764E0,-3.9790815E-1,-2.8057736E-1,3.645157E0,1.3422847E-1,3.0874302E0,1.2192732E0,1.7701567E1,-1.087081E-1,-9.702202E-2,-3.0657658E-3,1.2658988E-1,-9.405959E-2,-9.489044E-2,-1.1401707E-2,-1.07340895E-1,4.406887E-2,-4.7726035E-2,1.4231198E-1,5.520419E-2,1.15068175E-1,1.0354574E-1,-3.5468978E-1],"split_indices":[0,0,0,701,700,703,712,0,0,709,0,705,0,884,0,0,0,0,0,0,0,0,0,0,0,0,0,0,0],"split_type":[0,0,0,0,0,0,0,0,0,0,0,0,0,0,0,0,0,0,0,0,0,0,0,0,0,0,0,0,0],"sum_hessian":[2.020183E5,1.3898689E5,6.3031406E4,8.04517E4,5.8535188E4,2.7437258E4,3.559415E4,7.210103E4,8.350674E3,5.1052195E4,7.4829917E3,1.1119851E4,1.6317408E4,3.5549215E4,4.4930443E1,1.989048E4,5.2210547E4,8.344511E3,6.1624727E0,4.7056293E4,3.9959028E3,2.1861724E3,5.2968193E3,8.387146E3,2.7327039E3,5.613841E2,1.5756024E4,3.554481E4,4.4076333E0],"tree_param":{"num_deleted":"0","num_feature":"1190","num_nodes":"29","size_leaf_vector":"1"}},{"base_weights":[-1.5151081E-2,-4.019739E-1,8.2852507E-1,-1.2118392E-1,-8.066436E-1,6.257178E-1,1.0017211E0,-2.725613E-1,1.2337655E0,-9.243246E-1,-4.4134036E-2,7.224812E-1,-1.9450318E0,1.016143E0,4.6631292E-1,-3.622794E-2,1.5502839E-1,1.348729E-1,1.22826815E-1,-9.78144E-2,1.2352787E-2,-1.066063E-1,3.6590558E-2,8.2862355E-2,-1.4419699E-1,-1.3289727E-1,-1.986731E-1,1.018857E-1,-1.07330896E-1,-3.1974545E-1,8.048646E-2],"categories":[],"categories_nodes":[],"categories_segments":[],"categories_sizes":[],"default_left":[0,0,0,0,0,0,0,0,0,0,0,0,0,0,0,0,0,0,0,0,0,0,0,0,0,0,0,0,0,0,0],"id":21,"left_children":[1,3,5,7,9,11,13,15,17,19,21,23,25,27,29,-1,-1,-1,-1,-1,-1,-1,-1,-1,-1,-1,-1,-1,-1,-1,-1],"loss_changes":[6.2475727E4,1.4914109E4,2.1132344E3,1.5894125E4,4.824633E3,6.897659E3,2.501543E2,1.1399965E4,3.2636719E0,2.6268984E3,3.013089E3,6.1394375E3,2.3201172E1,1.8032422E2,1.0608752E3,0E0,0E0,0E0,0E0,0E0,0E0,0E0,0E0,0E0,0E0,0E0,0E0,0E0,0E0,0E0,0E0],"parents":[2147483647,0,0,1,1,2,2,3,3,4,4,5,5,6,6,7,7,8,8,9,9,10,10,11,11,12,12,13,13,14,14],"right_children":[2,4,6,8,10,12,14,16,18,20,22,24,26,28,30,-1,-1,-1,-1,-1,-1,-1,-1,-1,-1,-1,-1,-1,-1,-1,-1],"split_conditions":[9.748184E-1,-2.8057736E-1,3.5865357E0,2.9746828E0,3.6300626E0,3.50619E0,3.9087899E0,5.246756E0,-3.9522597E-1,3.9087899E0,1.3422847E-1,3.1802278E0,1.0658262E0,5.568764E0,9.0920585E-1,-3.622794E-2,1.5502839E-1,1.348729E-1,1.22826815E-1,-9.78144E-2,1.2352787E-2,-1.066063E-1,3.6590558E-2,8.2862355E-2,-1.4419699E-1,-1.3289727E-1,-1.986731E-1,1.018857E-1,-1.07330896E-1,-3.1974545E-1,8.048646E-2],"split_indices":[0,0,0,701,700,710,708,702,0,708,0,711,0,712,713,0,0,0,0,0,0,0,0,0,0,0,0,0,0,0,0],"split_type":[0,0,0,0,0,0,0,0,0,0,0,0,0,0,0,0,0,0,0,0,0,0,0,0,0,0,0,0,0,0,0],"sum_hessian":[1.9143392E5,1.3125462E5,6.0179305E4,7.748858E4,5.3766047E4,2.7722146E4,3.2457156E4,6.970213E4,7.7864487E3,4.657737E4,7.188675E3,2.6717227E4,1.0049211E3,3.1604943E4,8.5221136E2,6.643318E4,3.268954E3,3.4418918E2,7.44226E3,4.4302016E4,2.2753567E3,2.057996E3,5.1306787E3,2.5468877E4,1.248349E3,6.579172E1,9.3912933E2,3.1564457E4,4.048748E1,7.137329E1,7.808381E2],"tree_param":{"num_deleted":"0","num_feature":"1190","num_nodes":"31","size_leaf_vector":"1"}},{"base_weights":[-2.4231402E-3,-3.4436876E-1,8.421441E-1,-1.1671788E-1,-6.6338265E-1,8.575139E-1,-1.122396E-1,-8.96388E-1,1.1853918E-1,-7.703064E-1,1.2144764E-1,7.6446176E-1,1.1232028E-1,-9.126124E-2,3.4038326E-1,-2.6144986E-3,1.20020784E-1,-9.211887E-2,4.864684E-3,-1.0703371E-1,2.0411746E-1,-6.558671E-2,9.3100764E-2],"categories":[],"categories_nodes":[],"categories_segments":[],"categories_sizes":[],"default_left":[0,0,0,0,0,0,0,0,0,0,0,0,0,0,0,0,0,0,0,0,0,0,0],"id":22,"left_children":[1,3,5,7,9,11,-1,13,15,17,19,21,-1,-1,-1,-1,-1,-1,-1,-1,-1,-1,-1],"loss_changes":[5.28853E4,9.4663125E3,1.5944805E3,1.3952684E4,4.5552363E3,1.2937773E3,0E0,1.233291E3,9.145346E3,5.903158E3,1.4894975E4,9.175455E3,0E0,0E0,0E0,0E0,0E0,0E0,0E0,0E0,0E0,0E0,0E0],"parents":[2147483647,0,0,1,1,2,2,3,3,4,4,5,5,7,7,8,8,9,9,10,10,11,11],"right_children":[2,4,6,8,10,12,-1,14,16,18,20,22,-1,-1,-1,-1,-1,-1,-1,-1,-1,-1,-1],"split_conditions":[1.2192732E0,-2.7234364E-1,5.568764E0,-3.9878145E-1,3.0874302E0,3.0802069E0,-1.122396E-1,3.9850502E1,2.9746828E0,3.6300626E0,6.639323E-1,2.224725E0,1.1232028E-1,-9.126124E-2,3.4038326E-1,-2.6144986E-3,1.20020784E-1,-9.211887E-2,4.864684E-3,-1.0703371E-1,2.0411746E-1,-6.558671E-2,9.3100764E-2],"split_indices":[0,0,712,0,705,703,0,224,701,700,0,0,0,0,0,0,0,0,0,0,0,0,0],"split_type":[0,0,0,0,0,0,0,0,0,0,0,0,0,0,0,0,0,0,0,0,0,0,0],"sum_hessian":[1.8312133E5,1.3034732E5,5.2774004E4,7.6066805E4,5.4280516E4,5.2364883E4,4.091191E2,1.7631404E4,5.84354E4,4.777215E4,6.508367E3,3.8785074E4,1.357981E4,1.7565918E4,6.548703E1,5.1542094E4,6.8933027E3,4.0339887E4,7.4322617E3,4.015777E3,2.49259E3,4.070268E3,3.4714805E4],"tree_param":{"num_deleted":"0","num_feature":"1190","num_nodes":"23","size_leaf_vector":"1"}},{"base_weights":[6.576785E-4,-3.1974316E-1,8.107387E-1,-9.668946E-2,-6.087765E-1,7.120528E-1,1.1099028E-1,-9.0609866E-1,1.3766587E-1,-7.1007943E-1,9.7117685E-2,-6.5944535E-1,8.798609E-1,-9.2361376E-2,2.4127029E-1,2.437412E-2,-1.23043135E-1,-7.661082E-2,3.0623222E-2,-1.0830816E-1,1.8324696E-1,-1.3695396E-1,1.185381E-1,9.0057604E-2,-1.1082063E-1],"categories":[],"categories_nodes":[],"categories_segments":[],"categories_sizes":[],"default_left":[0,0,0,0,0,0,0,0,0,0,0,0,0,0,0,0,0,0,0,0,0,0,0,0,0],"id":23,"left_children":[1,3,5,7,9,11,-1,13,15,17,19,21,23,-1,-1,-1,-1,-1,-1,-1,-1,-1,-1,-1,-1],"loss_changes":[4.5540363E4,8.105754E3,1.4673555E3,1.3461632E4,3.9162715E3,8.60725E3,0E0,9.2846387E2,7.9867637E3,2.7273418E3,1.4080092E4,5.342926E3,1.373209E3,0E0,0E0,0E0,0E0,0E0,0E0,0E0,0E0,0E0,0E0,0E0,0E0],"parents":[2147483647,0,0,1,1,2,2,3,3,4,4,5,5,7,7,8,8,9,9,10,10,11,11,12,12],"right_children":[2,4,6,8,10,12,-1,14,16,18,20,22,24,-1,-1,-1,-1,-1,-1,-1,-1,-1,-1,-1,-1],"split_conditions":[1.2192732E0,-2.9292798E-1,3.0802069E0,-3.9965472E-1,3.0874302E0,2.224725E0,1.1099028E-1,3.9850502E1,3.1802278E0,3.9087899E0,6.639323E-1,3.0874302E0,5.568764E0,-9.2361376E-2,2.4127029E-1,2.437412E-2,-1.23043135E-1,-7.661082E-2,3.0623222E-2,-1.0830816E-1,1.8324696E-1,-1.3695396E-1,1.185381E-1,9.0057604E-2,-1.1082063E-1],"split_indices":[0,0,703,0,705,0,0,224,711,708,0,705,712,0,0,0,0,0,0,0,0,0,0,0,0],"split_type":[0,0,0,0,0,0,0,0,0,0,0,0,0,0,0,0,0,0,0,0,0,0,0,0,0],"sum_hessian":[1.754565E5,1.257291E5,4.9727395E4,7.096506E4,5.476404E4,3.7395156E4,1.2332238E4,1.5933067E4,5.5032E4,4.7891168E4,6.8728716E3,4.0763289E3,3.331883E4,1.5850139E4,8.292805E1,5.1072887E4,3.9591116E3,4.5389133E4,2.5020325E3,4.090994E3,2.7818774E3,2.9435725E3,1.1327563E3,3.2975777E4,3.4305142E2],"tree_param":{"num_deleted":"0","num_feature":"1190","num_nodes":"25","size_leaf_vector":"1"}},{"base_weights":[2.8183442E-3,-2.881721E-1,7.80094E-1,-8.891692E-2,-5.8961725E-1,6.797365E-1,1.0974272E-1,-9.461969E-1,1.0395086E-1,-7.133639E-1,1.2025301E-1,-3.5889244E-1,8.9168704E-1,-1.0197476E-1,3.0091403E-2,-3.1325303E-3,1.1729157E-1,-8.620777E-2,1.5235546E-2,-1.0549086E-1,4.8328336E-2,-9.561743E-2,8.1722565E-2,9.030416E-2,-1.0902216E-1],"categories":[],"categories_nodes":[],"categories_segments":[],"categories_sizes":[],"default_left":[0,0,0,0,0,0,0,0,0,0,0,0,0,0,0,0,0,0,0,0,0,0,0,0,0],"id":24,"left_children":[1,3,5,7,9,11,-1,13,15,17,19,21,23,-1,-1,-1,-1,-1,-1,-1,-1,-1,-1,-1,-1],"loss_changes":[3.8066836E4,7.3553496E3,1.4592715E3,1.2190229E4,4.2809473E3,7.668293E3,0E0,1.2423301E3,8.703446E3,5.342836E3,3.08709E3,4.14833E3,6.52E2,0E0,0E0,0E0,0E0,0E0,0E0,0E0,0E0,0E0,0E0,0E0,0E0],"parents":[2147483647,0,0,1,1,2,2,3,3,4,4,5,5,7,7,8,8,9,9,10,10,11,11,12,12],"right_children":[2,4,6,8,10,12,-1,14,16,18,20,22,24,-1,-1,-1,-1,-1,-1,-1,-1,-1,-1,-1,-1],"split_conditions":[1.2192732E0,-2.7234364E-1,3.0802069E0,-4.0233693E-1,3.6300626E0,2.7204337E0,1.0974272E-1,3.2359614E0,2.9746828E0,3.0874302E0,1.3422847E-1,3.576641E0,5.568764E0,-1.0197476E-1,3.0091403E-2,-3.1325303E-3,1.1729157E-1,-8.620777E-2,1.5235546E-2,-1.0549086E-1,4.8328336E-2,-9.561743E-2,8.1722565E-2,9.030416E-2,-1.0902216E-1],"split_indices":[0,0,703,0,700,0,0,706,701,705,0,699,712,0,0,0,0,0,0,0,0,0,0,0,0],"split_type":[0,0,0,0,0,0,0,0,0,0,0,0,0,0,0,0,0,0,0,0,0,0,0,0,0],"sum_hessian":[1.6830142E5,1.2245741E5,4.5844023E4,7.37259E4,4.8731508E4,3.4831574E4,1.1012446E4,1.3539615E4,6.0186285E4,4.149753E4,7.233976E3,5.9032036E3,2.8928371E4,1.2785735E4,7.538798E2,5.342623E4,6.7600522E3,3.5414082E4,6.083449E3,1.7068486E3,5.5271274E3,3.9151262E3,1.9880774E3,2.8764123E4,1.6424805E2],"tree_param":{"num_deleted":"0","num_feature":"1190","num_nodes":"25","size_leaf_vector":"1"}},{"base_weights":[-1.8903073E-2,-3.0122614E-1,7.505394E-1,-2.3729141E-1,-1.197401E0,6.421581E-1,1.08724646E-1,6.660051E-3,-5.538993E-1,-1.1144944E-1,-1.2405108E0,-3.835772E-1,8.595627E-1,1.454386E-2,-1.1551767E-1,-6.507071E-2,1.8162752E-2,-1.2912698E-1,-1.1246605E-1,-9.5414594E-2,7.5886115E-2,4.0405687E-2,9.0727024E-2],"categories":[],"categories_nodes":[],"categories_segments":[],"categories_sizes":[],"default_left":[0,0,0,0,0,0,0,0,0,0,0,0,0,0,0,0,0,0,0,0,0,0,0],"id":25,"left_children":[1,3,5,7,9,11,-1,13,15,-1,17,19,21,-1,-1,-1,-1,-1,-1,-1,-1,-1,-1],"loss_changes":[3.4857758E4,6.7258193E3,1.5711523E3,8.463232E3,2.6555664E1,7.2671914E3,0E0,9.97913E3,3.3956006E3,0E0,2.8737305E1,3.7159485E3,5.8394727E2,0E0,0E0,0E0,0E0,0E0,0E0,0E0,0E0,0E0,0E0],"parents":[2147483647,0,0,1,1,2,2,3,3,4,4,5,5,7,7,8,8,10,10,11,11,12,12],"right_children":[2,4,6,8,10,12,-1,14,16,-1,18,20,22,-1,-1,-1,-1,-1,-1,-1,-1,-1,-1],"split_conditions":[1.2192732E0,3.50619E0,3.0802069E0,-2.9292798E-1,-3.9878145E-1,2.7204337E0,1.08724646E-1,3.1802278E0,8.1787837E-1,-1.1144944E-1,-2.8469425E-1,3.576641E0,3.5865357E0,1.454386E-2,-1.1551767E-1,-6.507071E-2,1.8162752E-2,-1.2912698E-1,-1.1246605E-1,-9.5414594E-2,7.5886115E-2,4.0405687E-2,9.0727024E-2],"split_indices":[0,710,703,0,0,0,0,711,0,0,0,699,0,0,0,0,0,0,0,0,0,0,0],"split_type":[0,0,0,0,0,0,0,0,0,0,0,0,0,0,0,0,0,0,0,0,0,0,0],"sum_hessian":[1.604617E5,1.1738978E5,4.307193E4,1.0957385E5,7.8159297E3,3.2585887E4,1.0486042E4,6.188864E4,4.7685207E4,2.6829856E3,5.132944E3,5.6985996E3,2.6887287E4,5.5285766E4,6.6028745E3,4.21391E4,5.546106E3,3.5620906E3,1.5708536E3,3.800619E3,1.8979807E3,2.5499683E3,2.4337318E4],"tree_param":{"num_deleted":"0","num_feature":"1190","num_nodes":"23","size_leaf_vector":"1"}},{"base_weights":[-5.531872E-3,2.583708E-2,-4.9309576E-1,6.8875305E-2,-3.6420336E-1,-9.0703255E-1,-4.4258606E-1,1.04103595E-1,-3.0732104E-1,-2.0386177E-1,-4.8646638E-1,-9.713798E-1,4.0167853E-1,3.7437811E-1,-4.6841007E-1,8.349617E-3,5.709353E-2,3.813564E-3,-1.0112351E-1,-3.4543257E-2,3.4051216E-5,-4.989863E-2,7.553391E-2,-1.009314E-1,8.693163E-2,-1.2444293E-1,9.382886E-2,6.575993E-2,-2.440928E-2,-9.211634E-2,-4.3494668E-2],"categories":[],"categories_nodes":[],"categories_segments":[],"categories_sizes":[],"default_left":[0,0,0,0,0,0,0,0,0,0,0,0,0,0,0,0,0,0,0,0,0,0,0,0,0,0,0,0,0,0,0],"id":26,"left_children":[1,3,5,7,9,11,13,15,17,19,21,23,25,27,29,-1,-1,-1,-1,-1,-1,-1,-1,-1,-1,-1,-1,-1,-1,-1,-1],"loss_changes":[2.3747126E3,2.4488875E3,1.9583398E2,1.741246E3,2.8410718E2,8.6266846E1,1.7669568E2,1.1556842E3,2.73575E3,1.8136862E2,1.2824902E2,6.876642E1,4.4006863E1,4.5165337E1,1.2248682E2,0E0,0E0,0E0,0E0,0E0,0E0,0E0,0E0,0E0,0E0,0E0,0E0,0E0,0E0,0E0,0E0],"parents":[2147483647,0,0,1,1,2,2,3,3,4,4,5,5,6,6,7,7,8,8,9,9,10,10,11,11,12,12,13,13,14,14],"right_children":[2,4,6,8,10,12,14,16,18,20,22,24,26,28,30,-1,-1,-1,-1,-1,-1,-1,-1,-1,-1,-1,-1,-1,-1,-1,-1],"split_conditions":[3.576641E0,3.1802278E0,-1.1832447E0,3.0874302E0,-2.8653303E-1,2.658556E1,-1.110429E0,5.246756E0,1.0998609E0,1.0998609E0,2.8868862E1,2.0888445E1,1.8325688E-1,-1.1548549E0,-8.852624E-1,8.349617E-3,5.709353E-2,3.813564E-3,-1.0112351E-1,-3.4543257E-2,3.4051216E-5,-4.989863E-2,7.553391E-2,-1.009314E-1,8.693163E-2,-1.2444293E-1,9.382886E-2,6.575993E-2,-2.440928E-2,-9.211634E-2,-4.3494668E-2],"split_indices":[699,711,1,705,3,573,1,702,714,714,1104,804,3,4,1,0,0,0,0,0,0,0,0,0,0,0,0,0,0,0,0],"split_type":[0,0,0,0,0,0,0,0,0,0,0,0,0,0,0,0,0,0,0,0,0,0,0,0,0,0,0,0,0,0,0],"sum_hessian":[1.5526528E5,1.4588055E5,9.384736E3,1.3138406E5,1.4496485E4,1.0187691E3,8.365967E3,1.20134945E5,1.1249116E4,6.272757E3,8.223729E3,9.7127106E2,4.749808E1,2.5592949E2,8.1100376E3,1.1505714E5,5.077807E3,7.5465005E3,3.7026155E3,3.704077E3,2.5686797E3,8.1422363E3,8.149197E1,9.5210126E2,1.9169773E1,1.1352878E1,3.6145203E1,1.7549873E2,8.0430756E1,5.5633966E2,7.5536978E3],"tree_param":{"num_deleted":"0","num_feature":"1190","num_nodes":"31","size_leaf_vector":"1"}},{"base_weights":[-2.6862089E-2,-2.935499E-1,7.3018014E-1,-2.3316833E-1,-1.1778954E0,5.3047734E-1,8.833146E-1,-1.102553E-3,-5.463496E-1,-1.1032466E-1,-1.2163001E0,6.350054E-1,-1.7243131E0,8.8447344E-1,-5.606407E-1,-1.2489929E-2,1.1527418E-1,-6.452465E-2,1.7241903E-2,-1.2596916E-1,-1.1159595E-1,7.4708134E-2,-1.5078668E-1,-1.5535712E-1,-1.9779763E-1,8.855501E-2,-5.2727497E-1],"categories":[],"categories_nodes":[],"categories_segments":[],"categories_sizes":[],"default_left":[0,0,0,0,0,0,0,0,0,0,0,0,0,0,0,0,0,0,0,0,0,0,0,0,0,0,0],"id":27,"left_children":[1,3,5,7,9,11,13,15,17,-1,19,21,23,25,-1,-1,-1,-1,-1,-1,-1,-1,-1,-1,-1,-1,-1],"loss_changes":[3.1049268E4,6.0725234E3,1.2247207E3,7.737311E3,1.9496094E1,4.099794E3,1.7547461E2,8.734868E3,3.2209785E3,0E0,1.9447266E1,3.9927954E3,3.0308594E1,1.5495898E2,0E0,0E0,0E0,0E0,0E0,0E0,0E0,0E0,0E0,0E0,0E0,0E0,0E0],"parents":[2147483647,0,0,1,1,2,2,3,3,4,4,5,5,6,6,7,7,8,8,10,10,11,11,12,12,13,13],"right_children":[2,4,6,8,10,12,14,16,18,-1,20,22,24,26,-1,-1,-1,-1,-1,-1,-1,-1,-1,-1,-1,-1,-1],"split_conditions":[1.2192732E0,3.50619E0,3.5865357E0,-2.9292798E-1,-3.9878145E-1,3.50619E0,2.0676344E1,2.9746828E0,8.1787837E-1,-1.1032466E-1,-2.8469425E-1,4.414613E0,2.224725E0,2.059126E1,-5.606407E-1,-1.2489929E-2,1.1527418E-1,-6.452465E-2,1.7241903E-2,-1.2596916E-1,-1.1159595E-1,7.4708134E-2,-1.5078668E-1,-1.5535712E-1,-1.9779763E-1,8.855501E-2,-5.2727497E-1],"split_indices":[0,710,0,0,0,710,830,701,0,0,0,707,0,771,0,0,0,0,0,0,0,0,0,0,0,0,0],"split_type":[0,0,0,0,0,0,0,0,0,0,0,0,0,0,0,0,0,0,0,0,0,0,0,0,0,0,0],"sum_hessian":[1.5378794E5,1.1372572E5,4.0062227E4,1.064582E5,7.2675146E3,1.7389297E4,2.267293E4,6.1148477E4,4.5309723E4,2.478899E3,4.7886157E3,1.6619562E4,7.6973474E2,2.2669746E4,3.1842384E0,5.5224316E4,5.924162E3,3.9829586E4,5.480137E3,3.3349065E3,1.4537094E3,1.5794151E4,8.254104E2,4.64322E2,3.0541275E2,2.2666639E4,3.1073103E0],"tree_param":{"num_deleted":"0","num_feature":"1190","num_nodes":"27","size_leaf_vector":"1"}},{"base_weights":[-1.469528E-3,-2.428226E-1,7.0318794E-1,-3.123894E-1,6.121839E-1,7.387642E-1,-4.1775084E-1,-7.2881657E-1,-1.8440536E-1,-1.0878912E-1,9.4331634E-1,7.553857E-1,-1.09235644E-1,2.099329E-1,-1.8120735E0,-8.669623E-2,1.1581069E-1,2.6757333E-2,-5.3471237E-2,2.078558E-1,-7.418995E-3,8.2872234E-2,4.23381E-2,-1.301922E-1,5.73302E-2,-1.2837294E-1,-4.0631533E-1],"categories":[],"categories_nodes":[],"categories_segments":[],"categories_sizes":[],"default_left":[0,0,0,0,0,0,0,0,0,0,0,0,0,0,0,0,0,0,0,0,0,0,0,0,0,0,0],"id":28,"left_children":[1,3,5,7,9,11,13,15,17,-1,19,21,-1,23,25,-1,-1,-1,-1,-1,-1,-1,-1,-1,-1,-1,-1],"loss_changes":[2.5431508E4,6.625327E3,1.5217012E3,5.4895713E3,4.719172E3,1.1262559E3,1.0280375E3,6.3130244E3,1.2475135E4,0E0,8.103678E3,8.918867E2,0E0,4.4605734E2,4.284286E2,0E0,0E0,0E0,0E0,0E0,0E0,0E0,0E0,0E0,0E0,0E0,0E0],"parents":[2147483647,0,0,1,1,2,2,3,3,4,4,5,5,6,6,7,7,8,8,10,10,11,11,13,13,14,14],"right_children":[2,4,6,8,10,12,14,16,18,-1,20,22,-1,24,26,-1,-1,-1,-1,-1,-1,-1,-1,-1,-1,-1,-1],"split_conditions":[1.2192732E0,3.9087899E0,3.9087899E0,-3.813783E-1,-4.0146363E-1,5.568764E0,-2.8598E-1,2.9746828E0,-2.9710722E-1,-1.0878912E-1,-3.813783E-1,3.1802278E0,-1.09235644E-1,2.7204337E0,3.5865357E0,-8.669623E-2,1.1581069E-1,2.6757333E-2,-5.3471237E-2,2.078558E-1,-7.418995E-3,8.2872234E-2,4.23381E-2,-1.301922E-1,5.73302E-2,-1.2837294E-1,-4.0631533E-1],"split_indices":[0,708,708,0,0,712,3,701,0,0,0,711,0,0,0,0,0,0,0,0,0,0,0,0,0,0,0],"split_type":[0,0,0,0,0,0,0,0,0,0,0,0,0,0,0,0,0,0,0,0,0,0,0,0,0,0,0],"sum_hessian":[1.4953242E5,1.1138312E5,3.8149312E4,1.0300301E5,8.380109E3,3.6976105E4,1.1732056E3,2.4213576E4,7.878943E4,1.3657734E3,7.014336E3,3.6644066E4,3.3203815E2,8.0959753E2,3.6360797E2,2.2562285E4,1.6512921E3,3.440242E4,4.4387008E4,3.3148655E3,3.6994707E3,3.0012996E4,6.6310703E3,1.563782E2,6.5321936E2,2.9576105E2,6.784692E1],"tree_param":{"num_deleted":"0","num_feature":"1190","num_nodes":"27","size_leaf_vector":"1"}},{"base_weights":[-9.006683E-3,-2.5103247E-1,6.2221354E-1,-9.341981E-2,-6.937364E-1,4.0790582E-1,8.392811E-1,-1.497072E-1,1.9576393E0,-1.0184135E0,-3.2086536E-1,-6.133874E-2,9.8579466E-1,8.620839E-1,1.452786E-1,-8.760967E-2,-2.5101225E-3,5.1802397E-2,1.1262288E0,-1.0251355E-1,3.3393583E-1,-6.697072E-3,-1.08263075E-1,1.0149127E-2,-1.4306794E-1,-3.7795242E-2,1.0325891E-1,8.6339936E-2,-3.9830887E-1,5.9884083E-2,-3.1068626E-1],"categories":[],"categories_nodes":[],"categories_segments":[],"categories_sizes":[],"default_left":[0,0,0,0,0,0,0,0,0,0,0,0,0,0,0,0,0,0,0,0,0,0,0,0,0,0,0,0,0,0,0],"id":29,"left_children":[1,3,5,7,9,11,13,15,17,19,21,23,25,27,29,-1,-1,-1,-1,-1,-1,-1,-1,-1,-1,-1,-1,-1,-1,-1,-1],"loss_changes":[2.207398E4,7.2875728E3,1.862585E3,8.892531E3,3.3193887E3,5.465035E3,3.1470312E2,6.7854165E3,2.7552842E4,4.327881E2,2.4687646E3,2.4802478E3,5.7672266E2,1.2619824E2,9.371447E2,0E0,0E0,0E0,0E0,0E0,0E0,0E0,0E0,0E0,0E0,0E0,0E0,0E0,0E0,0E0,0E0],"parents":[2147483647,0,0,1,1,2,2,3,3,4,4,5,5,6,6,7,7,8,8,9,9,10,10,11,11,12,12,13,13,14,14],"right_children":[2,4,6,8,10,12,14,16,18,20,22,24,26,28,30,-1,-1,-1,-1,-1,-1,-1,-1,-1,-1,-1,-1,-1,-1,-1,-1],"split_conditions":[9.748184E-1,-1.1016392E-1,3.5865357E0,-1.3879488E-1,2.032796E-1,3.0802069E0,3.9087899E0,-4.0233693E-1,3.9087899E0,2.9219217E1,3.0802069E0,3.1802278E0,1.0658262E0,2.0676344E1,-2.860727E-1,-8.760967E-2,-2.5101225E-3,5.1802397E-2,1.1262288E0,-1.0251355E-1,3.3393583E-1,-6.697072E-3,-1.08263075E-1,1.0149127E-2,-1.4306794E-1,-3.7795242E-2,1.0325891E-1,8.6339936E-2,-3.9830887E-1,5.9884083E-2,-3.1068626E-1],"split_indices":[0,0,0,0,0,703,708,0,708,1089,703,711,0,830,3,0,0,0,0,0,0,0,0,0,0,0,0,0,0,0,0],"split_type":[0,0,0,0,0,0,0,0,0,0,0,0,0,0,0,0,0,0,0,0,0,0,0,0,0,0,0,0,0,0,0],"sum_hessian":[1.4448808E5,1.0444271E5,4.004537E4,7.702226E4,2.7420459E4,2.015223E4,1.989314E4,7.496588E4,2.0563677E3,1.465655E4,1.2763909E4,1.1122046E4,9.030185E3,1.926007E4,6.330701E2,1.0975904E4,6.398998E4,1.7817509E3,2.7461685E2,1.4634739E4,2.1809853E1,9.574004E3,3.1899053E3,9.940888E3,1.1811576E3,2.9934003E2,8.730845E3,1.9255664E4,4.405891E0,5.563011E2,7.6769066E1],"tree_param":{"num_deleted":"0","num_feature":"1190","num_nodes":"31","size_leaf_vector":"1"}},{"base_weights":[5.332057E-4,4.1201495E-2,-4.05941E-1,7.025232E-2,-2.9369456E-1,-2.6462153E-1,-5.093678E-1,1.0407663E-1,-2.8813154E-1,-1.07307665E-1,-4.7451764E-1,-6.86642E-2,-4.0826207E-1,-5.195485E-1,5.686603E-1,1.3819455E-2,-2.0899482E-2,-6.534743E-2,-6.230325E-3,-1.3989175E-2,6.2015582E-2,1.2052582E-2,-4.9625617E-2,-9.035187E-3,1.3563286E-1,-4.5374922E-2,5.813792E-3,-6.527303E-2,-4.2754676E-2,-1.3830736E-1,7.73635E-2],"categories":[],"categories_nodes":[],"categories_segments":[],"categories_sizes":[],"default_left":[0,0,0,0,0,0,0,0,0,0,0,0,0,0,0,0,0,0,0,0,0,0,0,0,0,0,0,0,0,0,0],"id":30,"left_children":[1,3,5,7,9,11,13,15,17,19,21,23,25,27,29,-1,-1,-1,-1,-1,-1,-1,-1,-1,-1,-1,-1,-1,-1,-1,-1],"loss_changes":[2.325351E3,1.2441204E3,1.868667E2,1.4264224E3,3.439698E2,1.5221317E2,8.1361206E1,1.1485063E3,8.3722656E2,1.19261154E2,6.707471E1,7.086161E1,6.623413E1,8.9385864E1,2.8905983E1,0E0,0E0,0E0,0E0,0E0,0E0,0E0,0E0,0E0,0E0,0E0,0E0,0E0,0E0,0E0,0E0],"parents":[2147483647,0,0,1,1,2,2,3,3,4,4,5,5,6,6,7,7,8,8,9,9,10,10,11,11,12,12,13,13,14,14],"right_children":[2,4,6,8,10,12,14,16,18,20,22,24,26,28,30,-1,-1,-1,-1,-1,-1,-1,-1,-1,-1,-1,-1,-1,-1,-1,-1],"split_conditions":[3.1802278E0,4.414613E0,9.0920585E-1,3.6300626E0,9.0920585E-1,-2.8598E-1,2.5260067E1,3.0874302E0,9.0920585E-1,3.1566475E1,-2.3660219E0,4.9926003E1,1.2093136E0,-3.9266177E-2,2.4581568E-1,1.3819455E-2,-2.0899482E-2,-6.534743E-2,-6.230325E-3,-1.3989175E-2,6.2015582E-2,1.2052582E-2,-4.9625617E-2,-9.035187E-3,1.3563286E-1,-4.5374922E-2,5.813792E-3,-6.527303E-2,-4.2754676E-2,-1.3830736E-1,7.73635E-2],"split_indices":[711,707,713,700,713,3,958,705,713,251,2,1125,2,2,4,0,0,0,0,0,0,0,0,0,0,0,0,0,0,0,0],"split_type":[0,0,0,0,0,0,0,0,0,0,0,0,0,0,0,0,0,0,0,0,0,0,0,0,0,0,0,0,0,0,0],"sum_hessian":[1.4066739E5,1.2787429E5,1.2793095E4,1.1766788E5,1.0206406E4,5.4077085E3,7.385386E3,1.0752077E5,1.0147112E4,5.026666E3,5.1797397E3,2.2879373E3,3.1197712E3,7.316806E3,6.858024E1,9.695533E4,1.0565445E4,3.8754895E3,6.271623E3,4.8119404E3,2.1472563E2,1.8240018E2,4.99734E3,2.2545605E3,3.337667E1,2.8425679E3,2.7720322E2,2.9868877E3,4.329918E3,5.9716516E0,6.260859E1],"tree_param":{"num_deleted":"0","num_feature":"1190","num_nodes":"31","size_leaf_vector":"1"}},{"base_weights":[3.0444663E-3,-2.0006436E-1,6.4524347E-1,-1.4251032E-1,-1.2571094E0,6.8106896E-1,-4.7278264E-1,-7.590701E-2,-1.1554297E0,-1.2256589E0,-2.8415248E-1,4.7922876E-1,8.4501314E-1,1.0602567E-1,-1.5579743E0,-3.3758595E-5,-1.1204393E-1,-1.0797107E-1,-1.1905807E-1,-1.3317823E-1,-1.05392955E-1,5.985524E-2,-1.6751206E-1,8.465995E-2,-5.0009555E-1,-1.2708035E-1,4.815015E-2,-1.258246E-1,-2.546347E-1],"categories":[],"categories_nodes":[],"categories_segments":[],"categories_sizes":[],"default_left":[0,0,0,0,0,0,0,0,0,0,0,0,0,0,0,0,0,0,0,0,0,0,0,0,0,0,0,0,0],"id":31,"left_children":[1,3,5,7,9,11,13,15,17,19,-1,21,23,25,27,-1,-1,-1,-1,-1,-1,-1,-1,-1,-1,-1,-1,-1,-1],"loss_changes":[1.837431E4,6.5106562E3,1.3560469E3,6.8471895E3,2.718838E2,1.0848633E3,6.606365E2,7.51732E3,1.5381836E1,9.737793E1,0E0,3.7803413E3,1.7204785E2,3.556054E2,1.05168396E2,0E0,0E0,0E0,0E0,0E0,0E0,0E0,0E0,0E0,0E0,0E0,0E0,0E0,0E0],"parents":[2147483647,0,0,1,1,2,2,3,3,4,4,5,5,6,6,7,7,8,8,9,9,11,11,12,12,13,13,14,14],"right_children":[2,4,6,8,10,12,14,16,18,20,-1,22,24,26,28,-1,-1,-1,-1,-1,-1,-1,-1,-1,-1,-1,-1,-1,-1],"split_conditions":[1.2192732E0,3.576641E0,3.9087899E0,3.50619E0,1.0658262E0,3.5865357E0,-2.8598E-1,3.1802278E0,-3.9878145E-1,-2.8469425E-1,-2.8415248E-1,3.50619E0,1.4469367E1,2.7204337E0,3.5865357E0,-3.3758595E-5,-1.1204393E-1,-1.0797107E-1,-1.1905807E-1,-1.3317823E-1,-1.05392955E-1,5.985524E-2,-1.6751206E-1,8.465995E-2,-5.0009555E-1,-1.2708035E-1,4.815015E-2,-1.258246E-1,-2.546347E-1],"split_indices":[0,699,708,710,0,0,3,711,0,0,0,710,1185,0,0,0,0,0,0,0,0,0,0,0,0,0,0,0,0],"split_type":[0,0,0,0,0,0,0,0,0,0,0,0,0,0,0,0,0,0,0,0,0,0,0,0,0,0,0,0,0],"sum_hessian":[1.4086612E5,1.07019625E5,3.38465E4,1.0149458E5,5.5250454E3,3.279599E4,1.0505084E3,9.523367E4,6.2609033E3,5.4192476E3,1.05798065E2,1.4700889E4,1.8095102E4,6.856864E2,3.6482202E2,8.8809516E4,6.4241567E3,1.9950608E3,4.265843E3,3.3452385E3,2.0740088E3,1.3930062E4,7.7082666E2,1.8091047E4,4.053809E0,1.4641476E2,5.392716E2,2.816757E2,8.314632E1],"tree_param":{"num_deleted":"0","num_feature":"1190","num_nodes":"29","size_leaf_vector":"1"}},{"base_weights":[-3.352841E-4,-2.0436129E-1,5.720432E-1,-1.8464033E-2,-5.5525094E-1,3.649451E-1,7.9703844E-1,-8.13262E-1,1.2399053E-1,-7.486933E-1,-2.0707631E-1,-6.0114715E-2,9.5952445E-1,8.2065386E-1,1.4681289E-1,-8.323139E-2,4.60402E-1,2.2629755E-2,-1.3081446E-1,-8.663618E-2,7.108597E-2,6.0724644E-3,-1.0753695E-1,-6.040252E-2,1.2541454E-1,-6.3405E-2,1.0170656E-1,8.247024E-2,-1.0536778E-1,-2.3144439E-1,4.9208034E-2],"categories":[],"categories_nodes":[],"categories_segments":[],"categories_sizes":[],"default_left":[0,0,0,0,0,0,0,0,0,0,0,0,0,0,0,0,0,0,0,0,0,0,0,0,0,0,0,0,0,0,0],"id":32,"left_children":[1,3,5,7,9,11,13,15,17,19,21,23,25,27,29,-1,-1,-1,-1,-1,-1,-1,-1,-1,-1,-1,-1,-1,-1,-1,-1],"loss_changes":[1.6025092E4,6.5988745E3,1.6799766E3,7.4875776E3,2.3594873E3,4.746056E3,2.652588E2,1.0412349E3,8.217019E3,3.8685146E3,2.9100005E3,7.8292305E3,7.1848096E2,1.2741406E2,5.168783E2,0E0,0E0,0E0,0E0,0E0,0E0,0E0,0E0,0E0,0E0,0E0,0E0,0E0,0E0,0E0,0E0],"parents":[2147483647,0,0,1,1,2,2,3,3,4,4,5,5,6,6,7,7,8,8,9,9,10,10,11,11,12,12,13,13,14,14],"right_children":[2,4,6,8,10,12,14,16,18,20,22,24,26,28,30,-1,-1,-1,-1,-1,-1,-1,-1,-1,-1,-1,-1,-1,-1,-1,-1],"split_conditions":[9.748184E-1,-2.7234364E-1,3.5865357E0,-4.0146363E-1,2.032796E-1,3.0802069E0,3.9087899E0,3.9704704E1,3.0874302E0,3.9087899E0,3.0802069E0,3.0874302E0,1.0658262E0,5.568764E0,9.0920585E-1,-8.323139E-2,4.60402E-1,2.2629755E-2,-1.3081446E-1,-8.663618E-2,7.108597E-2,6.0724644E-3,-1.0753695E-1,-6.040252E-2,1.2541454E-1,-6.3405E-2,1.0170656E-1,8.247024E-2,-1.0536778E-1,-2.3144439E-1,4.9208034E-2],"split_indices":[0,0,0,0,0,703,708,447,705,708,703,705,0,712,713,0,0,0,0,0,0,0,0,0,0,0,0,0,0,0,0],"split_type":[0,0,0,0,0,0,0,0,0,0,0,0,0,0,0,0,0,0,0,0,0,0,0,0,0,0,0,0,0,0,0],"sum_hessian":[1.3722252E5,1.0116322E5,3.6059293E4,6.6129586E4,3.5033633E4,1.8777797E4,1.7281496E4,1.005043E4,5.6079156E4,2.2520385E4,1.2513249E4,1.0950367E4,7.827428E3,1.6675594E4,6.059009E2,1.0016051E4,3.4378845E1,5.2340934E4,3.738222E3,2.0840629E4,1.6797562E3,9.564327E3,2.9489216E3,7.745436E3,3.2049316E3,2.7243558E2,7.5549927E3,1.6640213E4,3.5382263E1,7.3838196E1,5.320627E2],"tree_param":{"num_deleted":"0","num_feature":"1190","num_nodes":"31","size_leaf_vector":"1"}},{"base_weights":[9.644219E-3,-1.6417454E-1,5.9776926E-1,-1.0787647E-1,-1.1416073E0,4.8082626E-1,1.047229E0,8.8169366E-2,-4.3489885E-1,-1.0667882E-1,-1.1739081E0,-3.3276767E-1,7.21935E-1,1.0475413E0,5.4484982E-2,1.8848278E-2,-1.1121336E-1,-6.853017E-2,-9.800491E-3,-1.2058884E-1,-1.0883353E-1,-6.950634E-2,1.0471783E-1,3.5072584E-2,7.752642E-2,1.04785286E-1,5.5488538E-2],"categories":[],"categories_nodes":[],"categories_segments":[],"categories_sizes":[],"default_left":[0,0,0,0,0,0,0,0,0,0,0,0,0,0,0,0,0,0,0,0,0,0,0,0,0,0,0],"id":33,"left_children":[1,3,5,7,9,11,13,15,17,-1,19,21,23,25,-1,-1,-1,-1,-1,-1,-1,-1,-1,-1,-1,-1,-1],"loss_changes":[1.3662473E4,5.676504E3,1.6020098E3,6.253627E3,1.2324707E1,4.7465474E3,4.169922E-1,7.343136E3,3.0840293E3,0E0,9.398926E0,2.7663772E3,3.6921973E2,3.8378906E-1,0E0,0E0,0E0,0E0,0E0,0E0,0E0,0E0,0E0,0E0,0E0,0E0,0E0],"parents":[2147483647,0,0,1,1,2,2,3,3,4,4,5,5,6,6,7,7,8,8,10,10,11,11,12,12,13,13],"right_children":[2,4,6,8,10,12,14,16,18,-1,20,22,24,26,-1,-1,-1,-1,-1,-1,-1,-1,-1,-1,-1,-1,-1],"split_conditions":[1.2192732E0,3.50619E0,3.0802069E0,-2.8057736E-1,-3.9878145E-1,2.7204337E0,1.5163461E1,3.1802278E0,2.032796E-1,-1.0667882E-1,-2.8469425E-1,3.0874302E0,3.5865357E0,1.3069556E1,5.4484982E-2,1.8848278E-2,-1.1121336E-1,-6.853017E-2,-9.800491E-3,-1.2058884E-1,-1.0883353E-1,-6.950634E-2,1.0471783E-1,3.5072584E-2,7.752642E-2,1.04785286E-1,5.5488538E-2],"split_indices":[0,710,703,0,0,0,822,711,0,0,0,705,0,885,0,0,0,0,0,0,0,0,0,0,0,0,0],"split_type":[0,0,0,0,0,0,0,0,0,0,0,0,0,0,0,0,0,0,0,0,0,0,0,0,0,0,0],"sum_hessian":[1.3364619E5,1.0315866E5,3.048754E4,9.754158E4,5.6170796E3,2.4194537E4,6.2930034E3,6.0983473E4,3.65581E4,1.7040258E3,3.913054E3,5.5308687E3,1.8663668E4,6.2880093E3,4.993956E0,5.6280742E4,4.7027305E3,2.097041E4,1.5587691E4,2.8389773E3,1.0740767E3,4.3811284E3,1.14974E3,2.3454255E3,1.6318242E4,6.2829087E3,5.100674E0],"tree_param":{"num_deleted":"0","num_feature":"1190","num_nodes":"27","size_leaf_vector":"1"}},{"base_weights":[-7.700339E-4,-1.6635515E-1,5.7695735E-1,-1.11055136E-1,-1.2389029E0,6.146775E-1,-5.7189846E-1,-5.2459277E-2,-1.2752646E0,-1.2142383E0,-2.2928928E-1,6.336226E-1,-1.0841002E-1,-7.3746674E-2,-1.4707097E0,1.1354726E-3,-1.126621E-1,-1.2509674E-1,-2.3005794E-1,-1.3058251E-1,-1.04536586E-1,7.166064E-2,2.7878726E-2,-1.3067064E-1,3.9919596E-2,-1.20918505E-1,-2.200328E-1],"categories":[],"categories_nodes":[],"categories_segments":[],"categories_sizes":[],"default_left":[0,0,0,0,0,0,0,0,0,0,0,0,0,0,0,0,0,0,0,0,0,0,0,0,0,0,0],"id":34,"left_children":[1,3,5,7,9,11,13,15,17,19,-1,21,-1,23,25,-1,-1,-1,-1,-1,-1,-1,-1,-1,-1,-1,-1],"loss_changes":[1.2433622E4,5.9915166E3,1.2550576E3,6.5534443E3,1.2597656E2,9.029082E2,4.1223163E2,6.269621E3,1.1180371E2,7.352197E1,0E0,8.161826E2,0E0,3.4665002E2,5.999225E1,0E0,0E0,0E0,0E0,0E0,0E0,0E0,0E0,0E0,0E0,0E0,0E0],"parents":[2147483647,0,0,1,1,2,2,3,3,4,4,5,5,6,6,7,7,8,8,9,9,11,11,13,13,14,14],"right_children":[2,4,6,8,10,12,14,16,18,20,-1,22,-1,24,26,-1,-1,-1,-1,-1,-1,-1,-1,-1,-1,-1,-1],"split_conditions":[1.2192732E0,3.576641E0,3.9087899E0,4.414613E0,1.0658262E0,5.568764E0,-2.8598E-1,3.50619E0,1.0658262E0,-2.8469425E-1,-2.2928928E-1,3.1802278E0,-1.0841002E-1,3.5865357E0,3.5865357E0,1.1354726E-3,-1.126621E-1,-1.2509674E-1,-2.3005794E-1,-1.3058251E-1,-1.04536586E-1,7.166064E-2,2.7878726E-2,-1.3067064E-1,3.9919596E-2,-1.20918505E-1,-2.200328E-1],"split_indices":[0,699,708,707,0,712,3,710,0,0,0,711,0,0,0,0,0,0,0,0,0,0,0,0,0,0,0],"split_type":[0,0,0,0,0,0,0,0,0,0,0,0,0,0,0,0,0,0,0,0,0,0,0,0,0,0,0],"sum_hessian":[1.2997106E5,1.01018414E5,2.8952643E4,9.606638E4,4.952031E3,2.8032715E4,9.1992737E2,9.146395E4,4.6024297E3,4.8408994E3,1.11130974E2,2.7724158E4,3.085573E2,5.925809E2,3.273465E2,8.633589E4,5.1280693E3,4.498058E3,1.04371704E2,3.1343005E3,1.706599E3,2.2468521E4,5.2556367E3,1.6379779E2,4.2878308E2,2.4292844E2,8.441805E1],"tree_param":{"num_deleted":"0","num_feature":"1190","num_nodes":"27","size_leaf_vector":"1"}},{"base_weights":[5.366462E-3,-1.5947592E-1,4.8475382E-1,1.5357854E-2,-5.253388E-1,3.7176102E-1,1.4449598E0,-8.1912026E-2,1.1193647E0,-7.599154E-1,4.1445386E-1,-9.930939E-1,5.2434915E-1,5.957616E0,1.2506783E0,-2.2811543E-2,7.650384E-2,1.1153438E-1,1.872152E-1,-8.783456E-2,4.367049E-2,-1.03267334E-1,7.2602995E-2,-4.1200757E-2,-1.272306E-1,2.746636E-2,7.304383E-2,-1.0065802E-1,6.4252067E-1,1.1860601E-2,1.3756387E-1],"categories":[],"categories_nodes":[],"categories_segments":[],"categories_sizes":[],"default_left":[0,0,0,0,0,0,0,0,0,0,0,0,0,0,0,0,0,0,0,0,0,0,0,0,0,0,0,0,0,0,0],"id":35,"left_children":[1,3,5,7,9,11,13,15,17,19,21,23,25,27,29,-1,-1,-1,-1,-1,-1,-1,-1,-1,-1,-1,-1,-1,-1,-1,-1],"loss_changes":[1.00689E4,6.064804E3,3.536746E3,6.8896904E3,6.7589863E3,6.075799E3,3.001707E3,7.301385E3,1.3637207E1,3.4773213E3,2.7622256E3,4.7546094E2,1.3499819E3,4.6693213E2,4.6551807E2,0E0,0E0,0E0,0E0,0E0,0E0,0E0,0E0,0E0,0E0,0E0,0E0,0E0,0E0,0E0,0E0],"parents":[2147483647,0,0,1,1,2,2,3,3,4,4,5,5,6,6,7,7,8,8,9,9,10,10,11,11,12,12,13,13,14,14],"right_children":[2,4,6,8,10,12,14,16,18,20,22,24,26,28,30,-1,-1,-1,-1,-1,-1,-1,-1,-1,-1,-1,-1,-1,-1,-1,-1],"split_conditions":[8.1787837E-1,-2.8057736E-1,3.0874302E0,2.9746828E0,3.6300626E0,1.2192732E0,9.1169304E-1,3.2359614E0,2.482278E1,3.645157E0,1.3422847E-1,9.0920585E-1,3.5865357E0,-6.351638E-1,9.0920585E-1,-2.2811543E-2,7.650384E-2,1.1153438E-1,1.872152E-1,-8.783456E-2,4.367049E-2,-1.03267334E-1,7.2602995E-2,-4.1200757E-2,-1.272306E-1,2.746636E-2,7.304383E-2,-1.0065802E-1,6.4252067E-1,1.1860601E-2,1.3756387E-1],"split_indices":[0,0,705,701,700,0,0,706,1012,709,0,713,0,2,713,0,0,0,0,0,0,0,0,0,0,0,0,0,0,0,0],"split_type":[0,0,0,0,0,0,0,0,0,0,0,0,0,0,0,0,0,0,0,0,0,0,0,0,0,0,0,0,0,0,0],"sum_hessian":[1.2741479E5,9.481301E4,3.2601781E4,6.4155957E4,3.065705E4,2.9170512E4,3.4312695E3,5.896197E4,5.1939907E3,2.4533553E4,6.123497E3,2.9327183E3,2.6237795E4,1.4040315E2,3.2908665E3,5.0282727E4,8.67924E3,5.168863E3,2.5127787E1,2.2324365E4,2.2091892E3,1.0844435E3,5.0390537E3,9.5262463E2,1.9800935E3,1.1865085E4,1.4372709E4,8.761321E0,1.3164183E2,3.2733545E2,2.963531E3],"tree_param":{"num_deleted":"0","num_feature":"1190","num_nodes":"31","size_leaf_vector":"1"}},{"base_weights":[-1.4526791E-2,-1.6893752E-1,4.5251197E-1,-3.3811286E-2,-6.1245924E-1,3.6746803E-1,1.1815358E0,-9.643592E-2,1.9565128E0,-9.982853E-1,-2.595639E-1,-9.179741E-1,4.8639524E-1,3.4447393E-1,1.3027521E0,-1.9490821E-3,-1.22377515E-1,7.631193E-2,9.778382E-1,-1.0078873E-1,3.4259304E-1,-4.5956965E-3,-1.05279244E-1,-1.4803104E-1,-1.3733034E-2,3.4003805E-2,1.0380516E-1,-2.7692688E-1,5.9246E-2,2.1002574E-1,1.1700811E-1],"categories":[],"categories_nodes":[],"categories_segments":[],"categories_sizes":[],"default_left":[0,0,0,0,0,0,0,0,0,0,0,0,0,0,0,0,0,0,0,0,0,0,0,0,0,0,0,0,0,0,0],"id":36,"left_children":[1,3,5,7,9,11,13,15,17,19,21,23,25,27,29,-1,-1,-1,-1,-1,-1,-1,-1,-1,-1,-1,-1,-1,-1,-1,-1],"loss_changes":[8.871332E3,5.5406167E3,1.8945928E3,8.832639E3,2.9391963E3,4.1851836E3,3.234956E2,5.959335E3,2.0170766E4,4.4155664E2,1.9107104E3,1.01756323E3,2.0226641E3,3.1452994E2,2.9257568E2,0E0,0E0,0E0,0E0,0E0,0E0,0E0,0E0,0E0,0E0,0E0,0E0,0E0,0E0,0E0,0E0],"parents":[2147483647,0,0,1,1,2,2,3,3,4,4,5,5,6,6,7,7,8,8,9,9,10,10,11,11,12,12,13,13,14,14],"right_children":[2,4,6,8,10,12,14,16,18,20,22,24,26,28,30,-1,-1,-1,-1,-1,-1,-1,-1,-1,-1,-1,-1,-1,-1,-1,-1],"split_conditions":[9.1169304E-1,-1.1016392E-1,3.0874302E0,-1.3879488E-1,1.8756062E-1,1.2192732E0,9.0920585E-1,3.0874302E0,3.645157E0,2.7155579E1,3.0802069E0,3.0802069E0,3.0802069E0,-7.438134E-1,9.748184E-1,-1.9490821E-3,-1.22377515E-1,7.631193E-2,9.778382E-1,-1.0078873E-1,3.4259304E-1,-4.5956965E-3,-1.05279244E-1,-1.4803104E-1,-1.3733034E-2,3.4003805E-2,1.0380516E-1,-2.7692688E-1,5.9246E-2,2.1002574E-1,1.1700811E-1],"split_indices":[0,0,705,0,0,0,713,705,709,188,703,703,703,4,0,0,0,0,0,0,0,0,0,0,0,0,0,0,0,0,0],"split_type":[0,0,0,0,0,0,0,0,0,0,0,0,0,0,0,0,0,0,0,0,0,0,0,0,0,0,0,0,0,0,0],"sum_hessian":[1.2301305E5,9.244864E4,3.0564408E4,7.0860805E4,2.158784E4,2.7372756E4,3.1916523E3,6.870013E4,2.1606667E3,1.0311874E4,1.1275965E4,2.3174578E3,2.5055299E4,4.0421048E2,2.787442E3,6.4311645E4,4.3884917E3,1.8756012E3,2.850655E2,1.0290313E4,2.156118E1,8.884526E3,2.3914387E3,1.3465646E3,9.7089325E2,1.9803062E4,5.252235E3,2.9067568E1,3.751429E2,3.954575E2,2.3919844E3],"tree_param":{"num_deleted":"0","num_feature":"1190","num_nodes":"31","size_leaf_vector":"1"}},{"base_weights":[-1.1571328E-2,-1.5326223E-1,4.3858823E-1,-2.0813638E-1,8.7185705E-1,2.2643231E-1,6.9154465E-1,-1.5797456E-1,-1.1939887E0,2.7682287E-1,3.4339778E0,-1.3847871E-1,9.1122556E-1,7.2223043E-1,-1.9347066E-1,-9.797186E-3,-1.0896798E-1,-1.268434E-1,-1.0318035E-1,-2.2414414E-2,1.16740204E-1,3.7294003E-1,-1.3111229E-1,-5.7451643E-2,1.0294415E-1,-4.760855E-2,9.764355E-2,7.244071E-2,-4.438897E-1,2.623467E-2,-2.092911E-1],"categories":[],"categories_nodes":[],"categories_segments":[],"categories_sizes":[],"default_left":[0,0,0,0,0,0,0,0,0,0,0,0,0,0,0,0,0,0,0,0,0,0,0,0,0,0,0,0,0,0,0],"id":37,"left_children":[1,3,5,7,9,11,13,15,17,19,21,23,25,27,29,-1,-1,-1,-1,-1,-1,-1,-1,-1,-1,-1,-1,-1,-1,-1,-1],"loss_changes":[7.712578E3,5.1737188E3,1.5533818E3,4.316869E3,7.123502E3,3.9346902E3,3.587246E2,4.6440215E3,4.9723145E1,1.6927275E3,1.239418E3,5.231974E3,4.956494E2,1.4658008E2,3.8432367E2,0E0,0E0,0E0,0E0,0E0,0E0,0E0,0E0,0E0,0E0,0E0,0E0,0E0,0E0,0E0,0E0],"parents":[2147483647,0,0,1,1,2,2,3,3,4,4,5,5,6,6,7,7,8,8,9,9,10,10,11,11,12,12,13,13,14,14],"right_children":[2,4,6,8,10,12,14,16,18,20,22,24,26,28,30,-1,-1,-1,-1,-1,-1,-1,-1,-1,-1,-1,-1,-1,-1,-1,-1],"split_conditions":[9.748184E-1,5.568764E0,3.5865357E0,3.576641E0,-3.7670004E-1,3.0802069E0,3.9087899E0,3.1802278E0,-2.8469425E-1,-3.8512093E-1,-3.539325E-1,3.0874302E0,1.0658262E0,1.4469367E1,-2.8598E-1,-9.797186E-3,-1.0896798E-1,-1.268434E-1,-1.0318035E-1,-2.2414414E-2,1.16740204E-1,3.7294003E-1,-1.3111229E-1,-5.7451643E-2,1.0294415E-1,-4.760855E-2,9.764355E-2,7.244071E-2,-4.438897E-1,2.623467E-2,-2.092911E-1],"split_indices":[0,712,0,699,0,703,708,711,0,0,0,705,0,1185,3,0,0,0,0,0,0,0,0,0,0,0,0,0,0,0,0],"split_type":[0,0,0,0,0,0,0,0,0,0,0,0,0,0,0,0,0,0,0,0,0,0,0,0,0,0,0,0,0,0,0],"sum_hessian":[1.2091601E5,9.196883E4,2.8947178E4,8.729667E4,4.672153E3,1.574427E4,1.3202909E4,8.307104E4,4.2256343E3,3.7924836E3,8.7966907E2,1.0271575E4,5.4726943E3,1.2760647E4,4.4226126E2,7.8045914E4,5.025125E3,2.8915508E3,1.3340835E3,2.4276401E3,1.3648435E3,8.2831366E2,5.1355392E1,7.479606E3,2.791969E3,2.4540962E2,5.2272847E3,1.2756128E4,4.5201626E0,3.573647E2,8.489655E1],"tree_param":{"num_deleted":"0","num_feature":"1190","num_nodes":"31","size_leaf_vector":"1"}},{"base_weights":[7.569293E-5,-1.283329E-1,4.2336255E-1,-7.889777E-2,-1.2209613E0,3.1347314E-1,9.114823E-1,5.7773598E-2,-5.247607E-1,-1.07412174E-1,-1.2760981E0,-2.5202557E-1,6.1423075E-1,2.6685324E-1,1.028327E0,1.4053995E-2,-1.194121E-1,-1.0111612E-1,-1.875433E-2,-1.3421737E-1,-1.0477918E-1,-8.396325E-2,9.721996E-2,5.662136E-2,1.1486923E-1,1.5353762E-1,-1.039625E-1,1.0287839E-1,3.794166E-2],"categories":[],"categories_nodes":[],"categories_segments":[],"categories_sizes":[],"default_left":[0,0,0,0,0,0,0,0,0,0,0,0,0,0,0,0,0,0,0,0,0,0,0,0,0,0,0,0,0],"id":38,"left_children":[1,3,5,7,9,11,13,15,17,-1,19,21,23,25,27,-1,-1,-1,-1,-1,-1,-1,-1,-1,-1,-1,-1,-1,-1],"loss_changes":[6.4612217E3,4.9262993E3,1.4838125E3,5.3172876E3,3.0592285E1,3.8414395E3,3.826411E2,6.9203247E3,3.3577344E3,0E0,4.1810547E1,5.6422036E3,3.7773535E2,1.296656E3,8.857422E-1,0E0,0E0,0E0,0E0,0E0,0E0,0E0,0E0,0E0,0E0,0E0,0E0,0E0,0E0],"parents":[2147483647,0,0,1,1,2,2,3,3,4,4,5,5,6,6,7,7,8,8,10,10,11,11,12,12,13,13,14,14],"right_children":[2,4,6,8,10,12,14,16,18,-1,20,22,24,26,28,-1,-1,-1,-1,-1,-1,-1,-1,-1,-1,-1,-1,-1,-1],"split_conditions":[9.748184E-1,4.414613E0,3.0802069E0,-1.1016392E-1,-3.9790815E-1,2.7204337E0,1.2192732E0,3.0874302E0,1.5961583E-1,-1.07412174E-1,-2.8469425E-1,3.0874302E0,3.576641E0,9.0920585E-1,1.5163461E1,1.4053995E-2,-1.194121E-1,-1.0111612E-1,-1.875433E-2,-1.3421737E-1,-1.0477918E-1,-8.396325E-2,9.721996E-2,5.662136E-2,1.1486923E-1,1.5353762E-1,-1.039625E-1,1.0287839E-1,3.794166E-2],"split_indices":[0,707,703,0,0,0,0,705,0,0,0,705,699,713,822,0,0,0,0,0,0,0,0,0,0,0,0,0,0],"split_type":[0,0,0,0,0,0,0,0,0,0,0,0,0,0,0,0,0,0,0,0,0,0,0,0,0,0,0,0,0],"sum_hessian":[1.18871695E5,9.120452E4,2.766717E4,8.725769E4,3.9468345E3,2.2584426E4,5.0827446E3,6.678638E4,2.0471309E4,1.0830221E3,2.8638125E3,7.841197E3,1.47432295E4,7.804285E2,4.302316E3,6.264559E4,4.1407915E3,8.380838E3,1.2090472E4,2.2172312E3,6.4658124E2,5.29838E3,2.542817E3,1.3529749E4,1.2134807E3,3.958771E2,3.8455142E2,4.298704E3,3.6120174E0],"tree_param":{"num_deleted":"0","num_feature":"1190","num_nodes":"29","size_leaf_vector":"1"}},{"base_weights":[-1.0932513E-2,3.3355467E-2,-5.3182024E-1,3.924137E-3,6.916085E-1,-3.770375E-1,-7.015077E-1,-2.550808E-2,5.68449E-1,9.666121E-1,2.1701027E-1,-1.9721583E-1,-5.063663E-1,-7.15456E-1,1.0951458E0,9.80336E-4,-4.4461917E-2,5.5168897E-2,9.013306E-1,9.8929435E-2,-1.911763E-1,-4.2070594E-2,5.9482515E-2,-2.2422824E-2,1.2625837E-1,-8.818259E-2,-4.547433E-2,-7.286236E-2,7.868173E-2,-5.302574E-3,1.4798523E-1],"categories":[],"categories_nodes":[],"categories_segments":[],"categories_sizes":[],"default_left":[0,0,0,0,0,0,0,0,0,0,0,0,0,0,0,0,0,0,0,0,0,0,0,0,0,0,0,0,0,0,0],"id":39,"left_children":[1,3,5,7,9,11,13,15,17,19,21,23,25,27,29,-1,-1,-1,-1,-1,-1,-1,-1,-1,-1,-1,-1,-1,-1,-1,-1],"loss_changes":[2.679645E3,2.0740105E3,2.3880371E2,1.7026548E3,5.977798E2,1.1065411E2,1.0956836E2,1.4414347E3,7.137423E2,1.9126294E2,4.0555E2,7.890804E1,5.3277405E1,8.579224E1,1.5024258E1,0E0,0E0,0E0,0E0,0E0,0E0,0E0,0E0,0E0,0E0,0E0,0E0,0E0,0E0,0E0,0E0],"parents":[2147483647,0,0,1,1,2,2,3,3,4,4,5,5,6,6,7,7,8,8,9,9,10,10,11,11,12,12,13,13,14,14],"right_children":[2,4,6,8,10,12,14,16,18,20,22,24,26,28,30,-1,-1,-1,-1,-1,-1,-1,-1,-1,-1,-1,-1,-1,-1,-1,-1],"split_conditions":[3.1802278E0,5.246756E0,-2.8086665E-1,5.568764E0,-2.8067127E-1,9.0920585E-1,1.766081E1,4.414613E0,3.558823E1,1.6958742E1,2.602633E-1,4.99741E1,-1.0258704E0,2.2510078E1,1.329871E-1,9.80336E-4,-4.4461917E-2,5.5168897E-2,9.013306E-1,9.8929435E-2,-1.911763E-1,-4.2070594E-2,5.9482515E-2,-2.2422824E-2,1.2625837E-1,-8.818259E-2,-4.547433E-2,-7.286236E-2,7.868173E-2,-5.302574E-3,1.4798523E-1],"split_indices":[711,702,3,712,3,713,895,707,779,775,5,1018,1,843,5,0,0,0,0,0,0,0,0,0,0,0,0,0,0,0,0],"split_type":[0,0,0,0,0,0,0,0,0,0,0,0,0,0,0,0,0,0,0,0,0,0,0,0,0,0,0,0,0,0,0],"sum_hessian":[1.16155734E5,1.0705446E5,9.101268E3,1.0247374E5,4.580725E3,4.7613545E3,4.339913E3,9.739679E4,5.076949E3,2.8995554E3,1.6811699E3,1.9929027E3,2.7684517E3,4.3070767E3,3.2836277E1,8.982936E4,7.5674316E3,5.0679565E3,8.992788E0,2.8775361E3,2.2019356E1,6.2541473E2,1.0557552E3,1.9575266E3,3.5376034E1,3.326885E2,2.4357632E3,4.2701636E3,3.6913303E1,8.4573E0,2.4378979E1],"tree_param":{"num_deleted":"0","num_feature":"1190","num_nodes":"31","size_leaf_vector":"1"}},{"base_weights":[4.707575E-3,-9.840933E-2,4.7950572E-1,-4.7537692E-2,-1.2447747E0,3.9616194E-1,1.0308303E-1,8.367065E-3,-1.096477E0,-1.1921617E0,-3.7059358E-1,-7.769743E-1,5.510353E-1,1.5354857E-2,-2.4778904E-2,-1.0776716E-1,-1.4678143E-1,-1.1767862E-1,-1.6960847E-1,-1.4148808E-1,5.1980197E-2,4.510073E-2,1.14265405E-1],"categories":[],"categories_nodes":[],"categories_segments":[],"categories_sizes":[],"default_left":[0,0,0,0,0,0,0,0,0,0,0,0,0,0,0,0,0,0,0,0,0,0,0],"id":40,"left_children":[1,3,5,7,9,11,-1,13,15,17,-1,19,21,-1,-1,-1,-1,-1,-1,-1,-1,-1,-1],"loss_changes":[5.732804E3,5.6100615E3,9.595996E2,5.401584E3,5.248779E2,3.2981846E3,0E0,3.252345E3,3.0966309E1,2.9023926E1,0E0,1.7520978E3,9.483838E2,0E0,0E0,0E0,0E0,0E0,0E0,0E0,0E0,0E0,0E0],"parents":[2147483647,0,0,1,1,2,2,3,3,4,4,5,5,7,7,8,8,9,9,11,11,12,12],"right_children":[2,4,6,8,10,12,-1,14,16,18,-1,20,22,-1,-1,-1,-1,-1,-1,-1,-1,-1,-1],"split_conditions":[1.4284227E0,3.576641E0,3.0802069E0,3.1802278E0,1.2192732E0,2.224725E0,1.0308303E-1,-2.7234364E-1,1.0658262E0,1.0658262E0,-3.7059358E-1,3.576641E0,3.576641E0,1.5354857E-2,-2.4778904E-2,-1.0776716E-1,-1.4678143E-1,-1.1767862E-1,-1.6960847E-1,-1.4148808E-1,5.1980197E-2,4.510073E-2,1.14265405E-1],"split_indices":[0,699,703,711,0,0,0,0,0,0,0,699,699,0,0,0,0,0,0,0,0,0,0],"split_type":[0,0,0,0,0,0,0,0,0,0,0,0,0,0,0,0,0,0,0,0,0,0,0],"sum_hessian":[1.1709031E5,9.619863E4,2.0891676E4,9.211207E4,4.086566E3,1.8149703E4,2.7419727E3,8.745217E4,4.6598994E3,4.0024878E3,8.4078156E1,2.1161616E3,1.6033542E4,5.581712E4,3.1635049E4,4.438998E3,2.2090129E2,3.887218E3,1.1526969E2,1.4183567E3,6.97805E2,1.3716231E4,2.3173105E3],"tree_param":{"num_deleted":"0","num_feature":"1190","num_nodes":"23","size_leaf_vector":"1"}},{"base_weights":[2.9769365E-3,-1.1152385E-1,3.771129E-1,-5.2945185E-2,-1.0641352E0,2.7528185E-1,1.1807206E0,6.293929E-3,-1.1116436E0,-1.1437908E0,2.9450207E0,-8.166602E-1,4.050673E-1,3.4713569E0,1.0252907E0,6.279491E-3,-1.19492665E-1,-1.0532433E-1,-1.1382865E-1,-1.2085123E-1,-1.0302532E-1,2.150849E-1,1.2481521E0,-1.3342832E-1,-2.044019E-2,2.7221737E-2,1.0223748E-1,3.936656E-1,-1.1331135E-1,1.0700205E-2,1.1581637E-1],"categories":[],"categories_nodes":[],"categories_segments":[],"categories_sizes":[],"default_left":[0,0,0,0,0,0,0,0,0,0,0,0,0,0,0,0,0,0,0,0,0,0,0,0,0,0,0,0,0,0,0],"id":41,"left_children":[1,3,5,7,9,11,13,15,17,19,21,23,25,27,29,-1,-1,-1,-1,-1,-1,-1,-1,-1,-1,-1,-1,-1,-1,-1,-1],"loss_changes":[4.929505E3,4.916534E3,2.2062158E3,5.205694E3,1.6333408E3,3.3920664E3,1.0760225E3,5.335097E3,5.6450195E0,3.5535156E1,7.283398E2,8.055747E2,1.7539978E3,4.1636597E2,3.4652222E2,0E0,0E0,0E0,0E0,0E0,0E0,0E0,0E0,0E0,0E0,0E0,0E0,0E0,0E0,0E0,0E0],"parents":[2147483647,0,0,1,1,2,2,3,3,4,4,5,5,6,6,7,7,8,8,9,9,10,10,11,11,12,12,13,13,14,14],"right_children":[2,4,6,8,10,12,14,16,18,20,22,24,26,28,30,-1,-1,-1,-1,-1,-1,-1,-1,-1,-1,-1,-1,-1,-1,-1,-1],"split_conditions":[8.1787837E-1,3.0874302E0,3.0874302E0,3.50619E0,6.639323E-1,1.2192732E0,9.1169304E-1,4.414613E0,-3.9878145E-1,-2.8469425E-1,2.2585518E1,3.0802069E0,3.0802069E0,5.2742225E-1,9.0920585E-1,6.279491E-3,-1.19492665E-1,-1.0532433E-1,-1.1382865E-1,-1.2085123E-1,-1.0302532E-1,2.150849E-1,1.2481521E0,-1.3342832E-1,-2.044019E-2,2.7221737E-2,1.0223748E-1,3.936656E-1,-1.1331135E-1,1.0700205E-2,1.1581637E-1],"split_indices":[0,705,705,710,0,0,0,707,0,0,1144,703,703,4,713,0,0,0,0,0,0,0,0,0,0,0,0,0,0,0,0],"split_type":[0,0,0,0,0,0,0,0,0,0,0,0,0,0,0,0,0,0,0,0,0,0,0,0,0,0,0,0,0,0,0],"sum_hessian":[1.1506887E5,8.8105664E4,2.6963205E4,8.300266E4,5.103004E3,2.3931953E4,3.0312524E3,7.860532E4,4.3973403E3,5.004291E3,9.871265E1,2.5417556E3,2.1390197E4,1.9125847E2,2.8399941E3,7.5075016E4,3.5303037E3,1.3903287E3,3.0070115E3,3.1812156E3,1.8230758E3,9.2255424E1,6.4572225E0,1.3766837E3,1.165072E3,1.7603264E4,3.786935E3,1.7383665E2,1.7421816E1,3.5921994E2,2.4807742E3],"tree_param":{"num_deleted":"0","num_feature":"1190","num_nodes":"31","size_leaf_vector":"1"}},{"base_weights":[-1.4059498E-2,-8.310602E-2,6.1465997E-1,-2.8954614E-2,-1.1694554E0,6.484837E-1,-1.9509481E-1,2.5618916E-2,-1.2360578E0,-1.1242328E0,-1.8388431E0,7.691147E-1,5.232472E-1,-2.132606E0,1.7595091E-1,9.051732E-3,-1.08218685E-1,-1.3141164E-1,-1.8280385E-2,-1.1013724E-1,-1.3582937E-1,-1.5850167E-1,-2.0374809E-1,7.7590875E-2,-1.05173066E-1,5.297937E-2,-3.947346E-1,-1.7388399E-1,-2.2817619E-1,4.6230894E-2,-2.034982E-1],"categories":[],"categories_nodes":[],"categories_segments":[],"categories_sizes":[],"default_left":[0,0,0,0,0,0,0,0,0,0,0,0,0,0,0,0,0,0,0,0,0,0,0,0,0,0,0,0,0,0,0],"id":42,"left_children":[1,3,5,7,9,11,13,15,17,19,21,23,25,27,29,-1,-1,-1,-1,-1,-1,-1,-1,-1,-1,-1,-1,-1,-1,-1,-1],"loss_changes":[4.8951904E3,5.977148E3,3.0574365E2,6.3756475E3,1.4396973E2,1.6141699E2,3.2256845E2,6.6573384E3,3.4393994E2,2.2697266E1,1.2083984E1,6.828516E1,1.559878E2,2.675476E-1,2.3966618E2,0E0,0E0,0E0,0E0,0E0,0E0,0E0,0E0,0E0,0E0,0E0,0E0,0E0,0E0,0E0,0E0],"parents":[2147483647,0,0,1,1,2,2,3,3,4,4,5,5,6,6,7,7,8,8,9,9,10,10,11,11,12,12,13,13,14,14],"right_children":[2,4,6,8,10,12,14,16,18,20,22,24,26,28,30,-1,-1,-1,-1,-1,-1,-1,-1,-1,-1,-1,-1,-1,-1,-1,-1],"split_conditions":[3.5865357E0,3.50619E0,3.9087899E0,4.414613E0,2.224725E0,9.0920585E-1,9.0920585E-1,3.1802278E0,2.7204337E0,1.2192732E0,2.7204337E0,5.568764E0,2.3738325E1,-5.8111465E-1,5.3429418E0,9.051732E-3,-1.08218685E-1,-1.3141164E-1,-1.8280385E-2,-1.1013724E-1,-1.3582937E-1,-1.5850167E-1,-2.0374809E-1,7.7590875E-2,-1.05173066E-1,5.297937E-2,-3.947346E-1,-1.7388399E-1,-2.2817619E-1,4.6230894E-2,-2.034982E-1],"split_indices":[0,710,708,707,0,713,713,711,0,0,0,712,133,4,0,0,0,0,0,0,0,0,0,0,0,0,0,0,0,0,0],"split_type":[0,0,0,0,0,0,0,0,0,0,0,0,0,0,0,0,0,0,0,0,0,0,0,0,0,0,0,0,0,0,0],"sum_hessian":[1.1276192E5,1.0160449E5,1.1157427E4,9.678126E4,4.8232417E3,1.0710255E4,4.4717206E2,9.259594E4,4.185314E3,4.5205225E3,3.0271906E2,5.45282E3,5.257435E3,7.110924E1,3.7606284E2,8.747248E4,5.123467E3,3.896304E3,2.8901013E2,4.1234937E3,3.9702884E2,1.368397E2,1.6587936E2,5.433121E3,1.9698599E1,5.250628E3,6.8072186E0,2.301315E1,4.8096085E1,3.3364087E2,4.2421963E1],"tree_param":{"num_deleted":"0","num_feature":"1190","num_nodes":"31","size_leaf_vector":"1"}},{"base_weights":[3.4173275E-3,-6.955103E-1,5.6660928E-2,-8.428079E-1,6.7639804E-1,-3.8911153E-3,5.9274954E-1,-1.0453633E0,1.6451079E-1,1.4110847E0,-1.1420572E-1,4.0225577E-2,-1.2404425E0,5.233254E-1,8.017525E-1,-1.0522546E-1,1.22244E-1,1.4846998E-1,-1.08262144E-1,-1.13607585E-1,2.0297134E-1,8.837855E-3,-1.1831459E-1,-1.3433151E-1,-2.378064E-2,3.265143E-2,6.860177E-2,8.751075E-2,-3.823247E-2],"categories":[],"categories_nodes":[],"categories_segments":[],"categories_sizes":[],"default_left":[0,0,0,0,0,0,0,0,0,0,0,0,0,0,0,0,0,0,0,0,0,0,0,0,0,0,0,0,0],"id":43,"left_children":[1,3,5,7,9,11,13,15,17,19,-1,21,23,25,27,-1,-1,-1,-1,-1,-1,-1,-1,-1,-1,-1,-1,-1,-1],"loss_changes":[4.1632305E3,1.6008721E3,3.3745178E3,1.4594155E3,1.0281584E3,5.095582E3,1.5266284E2,9.434473E1,1.9744059E3,8.653696E2,0E0,5.3130586E3,3.3156543E2,2.5345093E2,2.2866321E2,0E0,0E0,0E0,0E0,0E0,0E0,0E0,0E0,0E0,0E0,0E0,0E0,0E0,0E0],"parents":[2147483647,0,0,1,1,2,2,3,3,4,4,5,5,6,6,7,7,8,8,9,9,11,11,12,12,13,13,14,14],"right_children":[2,4,6,8,10,12,14,16,18,20,-1,22,24,26,28,-1,-1,-1,-1,-1,-1,-1,-1,-1,-1,-1,-1,-1,-1],"split_conditions":[-4.0146363E-1,3.2359614E0,3.5865357E0,5.568764E0,-2.8763917E-1,4.414613E0,4.414613E0,2.195707E1,-2.868576E-1,-4.241688E-1,-1.1420572E-1,3.50619E0,2.7204337E0,3.50619E0,5.3429418E0,-1.0522546E-1,1.22244E-1,1.4846998E-1,-1.08262144E-1,-1.13607585E-1,2.0297134E-1,8.837855E-3,-1.1831459E-1,-1.3433151E-1,-2.378064E-2,3.265143E-2,6.860177E-2,8.751075E-2,-3.823247E-2],"split_indices":[0,706,0,712,3,707,707,105,3,0,0,710,0,710,0,0,0,0,0,0,0,0,0,0,0,0,0,0,0],"split_type":[0,0,0,0,0,0,0,0,0,0,0,0,0,0,0,0,0,0,0,0,0,0,0,0,0,0,0,0,0],"sum_hessian":[1.1187236E5,7.918203E3,1.0395416E5,7.150827E3,7.6737634E2,9.340492E4,1.0549238E4,5.953614E3,1.1972131E3,5.467173E2,2.2065901E2,9.018822E4,3.2166958E3,7.921478E3,2.6277603E3,5.936112E3,1.7502098E1,5.814798E2,6.1573334E2,1.06670906E2,4.400464E2,8.6773664E4,3.4145596E3,2.9170598E3,2.9963608E2,3.5862046E3,4.3352734E3,2.47471E3,1.5305017E2],"tree_param":{"num_deleted":"0","num_feature":"1190","num_nodes":"29","size_leaf_vector":"1"}},{"base_weights":[-1.3385548E-2,-3.655512E-2,5.323193E-1,-6.860202E-2,3.0019915E-1,1.6769978E0,4.7958037E-1,-1.05625026E-1,2.31617E-1,2.7097324E-1,3.4617991E0,1.505657E0,2.8898415E-1,5.5223125E-1,-4.3220302E-1,-1.5402942E-2,2.0945154E-2,2.23179E-2,1.058758E0,2.4779182E-2,3.7068024E-1,2.8010064E-1,7.11229E-1,-9.697347E-2,1.6337046E-1,-4.245968E-2,6.2203772E-2,-8.7601915E-2,1.7431794E-1],"categories":[],"categories_nodes":[],"categories_segments":[],"categories_sizes":[],"default_left":[0,0,0,0,0,0,0,0,0,0,0,0,0,0,0,0,0,0,0,0,0,0,0,0,0,0,0,0,0],"id":44,"left_children":[1,3,5,7,9,11,13,15,17,19,21,23,-1,25,27,-1,-1,-1,-1,-1,-1,-1,-1,-1,-1,-1,-1,-1,-1],"loss_changes":[1.3955687E3,1.1426718E3,2.705846E2,1.0746299E3,8.492051E2,3.6711792E1,2.850053E2,1.312655E3,9.251343E2,7.252615E2,1.8315558E2,5.7125427E1,0E0,2.717976E2,3.0837036E2,0E0,0E0,0E0,0E0,0E0,0E0,0E0,0E0,0E0,0E0,0E0,0E0,0E0,0E0],"parents":[2147483647,0,0,1,1,2,2,3,3,4,4,5,5,6,6,7,7,8,8,9,9,10,10,11,11,13,13,14,14],"right_children":[2,4,6,8,10,12,14,16,18,20,22,24,-1,26,28,-1,-1,-1,-1,-1,-1,-1,-1,-1,-1,-1,-1,-1,-1],"split_conditions":[5.246756E0,3.9087899E0,-2.3344061E0,3.645157E0,2.0427488E1,3.7467964E1,1.0948364E0,3.2359614E0,4.8992348E1,2.0888445E1,2.2738697E1,3.9750928E-1,2.8898415E-1,-7.822452E-1,3.8438713E1,-1.5402942E-2,2.0945154E-2,2.23179E-2,1.058758E0,2.4779182E-2,3.7068024E-1,2.8010064E-1,7.11229E-1,-9.697347E-2,1.6337046E-1,-4.245968E-2,6.2203772E-2,-8.7601915E-2,1.7431794E-1],"split_indices":[702,708,2,709,1041,584,1,706,867,804,197,1,0,2,248,0,0,0,0,0,0,0,0,0,0,0,0,0,0],"split_type":[0,0,0,0,0,0,0,0,0,0,0,0,0,0,0,0,0,0,0,0,0,0,0,0,0,0,0,0,0],"sum_hessian":[1.1037366E5,1.05879164E5,4.4944917E3,9.667955E4,9.199619E3,1.9659843E2,4.297893E3,8.606648E4,1.061307E4,9.116433E3,8.318683E1,1.7422653E2,2.2371893E1,3.9810754E3,3.1681766E2,7.460553E4,1.1460942E4,1.060545E4,7.619744E0,9.056401E3,6.003112E1,7.193316E1,1.125367E1,8.245862E0,1.6598068E2,2.651834E2,3.715892E3,2.6362985E2,5.3187805E1],"tree_param":{"num_deleted":"0","num_feature":"1190","num_nodes":"29","size_leaf_vector":"1"}},{"base_weights":[7.338479E-3,-7.038783E-1,5.6357488E-2,-8.813407E-1,6.8971527E-1,-1.2589489E-3,5.800429E-1,-9.118883E-1,4.5244045E0,1.2807661E0,-1.1279678E-1,4.2582233E-2,-1.0768039E0,6.1361367E-1,-1.6088706E-1,-1.0469516E-1,-2.6814638E-2,9.327016E-1,-1.01519875E-1,-1.1225839E-1,1.7565636E-1,8.597289E-3,-1.16301134E-1,-1.15950465E-1,-3.6811676E-2,7.391852E-2,4.825297E-2,2.6569594E-2,-1.9816212E-1],"categories":[],"categories_nodes":[],"categories_segments":[],"categories_sizes":[],"default_left":[0,0,0,0,0,0,0,0,0,0,0,0,0,0,0,0,0,0,0,0,0,0,0,0,0,0,0,0,0],"id":45,"left_children":[1,3,5,7,9,11,13,15,17,19,-1,21,23,25,27,-1,-1,-1,-1,-1,-1,-1,-1,-1,-1,-1,-1,-1,-1],"loss_changes":[3.8713013E3,1.7713259E3,3.1344443E3,1.0529766E3,8.70937E2,4.412984E3,2.5620923E2,5.489321E2,9.6346783E2,7.0088635E2,0E0,4.704101E3,2.1439941E2,1.6178467E2,3.4778156E2,0E0,0E0,0E0,0E0,0E0,0E0,0E0,0E0,0E0,0E0,0E0,0E0,0E0,0E0],"parents":[2147483647,0,0,1,1,2,2,3,3,4,4,5,5,6,6,7,7,8,8,9,9,11,11,12,12,13,13,14,14],"right_children":[2,4,6,8,10,12,14,16,18,20,-1,22,24,26,28,-1,-1,-1,-1,-1,-1,-1,-1,-1,-1,-1,-1,-1,-1],"split_conditions":[-4.0233693E-1,3.2359614E0,3.5865357E0,3.9728893E1,-2.8763917E-1,3.1802278E0,3.9087899E0,5.568764E0,-2.9251403E-1,-4.241688E-1,-1.1279678E-1,3.50619E0,2.7204337E0,9.0920585E-1,-2.8598E-1,-1.0469516E-1,-2.6814638E-2,9.327016E-1,-1.01519875E-1,-1.1225839E-1,1.7565636E-1,8.597289E-3,-1.16301134E-1,-1.15950465E-1,-3.6811676E-2,7.391852E-2,4.825297E-2,2.6569594E-2,-1.9816212E-1],"split_indices":[0,706,0,15,3,711,708,712,3,0,0,710,0,713,3,0,0,0,0,0,0,0,0,0,0,0,0,0,0],"split_type":[0,0,0,0,0,0,0,0,0,0,0,0,0,0,0,0,0,0,0,0,0,0,0,0,0,0,0,0,0],"sum_hessian":[1.1104069E5,7.158897E3,1.0388179E5,6.3505723E3,8.083245E2,9.358632E4,1.0295471E4,6.315714E3,3.485848E1,6.1020215E2,1.9812234E2,8.99219E4,3.6644204E3,9.849377E3,4.4609366E2,5.219901E3,1.0958129E3,1.8305046E1,1.655343E1,1.0061516E2,5.09587E2,8.6798836E4,3.1230583E3,3.2809158E3,3.835047E2,5.028092E3,4.821285E3,3.6210864E2,8.3985E1],"tree_param":{"num_deleted":"0","num_feature":"1190","num_nodes":"29","size_leaf_vector":"1"}},{"base_weights":[-3.3853175E-3,-9.725798E-2,3.4758562E-1,-4.90542E-2,-1.0608475E0,2.3924899E-1,8.531045E-1,-8.323553E-3,-1.0563022E0,-1.8889032E-1,-1.0508416E0,-2.5123385E-1,4.4884112E-1,-1.2279352E-1,9.5018077E-1,3.3566204E-3,-1.0712172E-1,-1.0270318E-1,-1.06912725E-1,-1.0466724E-1,-1.1312815E-1,-1.06585614E-1,8.979441E-2,4.8417512E-2,-1.0927921E-1,5.3442385E-2,1.0177674E-1],"categories":[],"categories_nodes":[],"categories_segments":[],"categories_sizes":[],"default_left":[0,0,0,0,0,0,0,0,0,0,0,0,0,0,0,0,0,0,0,0,0,0,0,0,0,0,0],"id":46,"left_children":[1,3,5,7,9,11,13,15,17,-1,19,21,23,-1,25,-1,-1,-1,-1,-1,-1,-1,-1,-1,-1,-1,-1],"loss_changes":[3.617988E3,4.0242788E3,1.2689119E3,3.385189E3,3.2215332E1,1.9620735E3,8.2730005E2,3.531164E3,1.0571289E-1,0E0,1.8457031E-1,5.35047E3,7.2890625E2,0E0,1.092605E2,0E0,0E0,0E0,0E0,0E0,0E0,0E0,0E0,0E0,0E0,0E0,0E0],"parents":[2147483647,0,0,1,1,2,2,3,3,4,4,5,5,6,6,7,7,8,8,10,10,11,11,12,12,14,14],"right_children":[2,4,6,8,10,12,14,16,18,-1,20,22,24,-1,26,-1,-1,-1,-1,-1,-1,-1,-1,-1,-1,-1,-1],"split_conditions":[9.748184E-1,3.0802069E0,3.0802069E0,3.1802278E0,-2.8874874E-1,2.224725E0,1.0658262E0,3.50619E0,-3.9790815E-1,-1.8889032E-1,9.1169304E-1,3.0874302E0,5.568764E0,-1.2279352E-1,1.2192732E0,3.3566204E-3,-1.0712172E-1,-1.0270318E-1,-1.06912725E-1,-1.0466724E-1,-1.1312815E-1,-1.06585614E-1,8.979441E-2,4.8417512E-2,-1.0927921E-1,5.3442385E-2,1.0177674E-1],"split_indices":[0,703,703,711,0,0,0,710,0,0,0,705,712,0,0,0,0,0,0,0,0,0,0,0,0,0,0],"split_type":[0,0,0,0,0,0,0,0,0,0,0,0,0,0,0,0,0,0,0,0,0,0,0,0,0,0,0],"sum_hessian":[1.0981176E5,8.6639414E4,2.3172342E4,8.251275E4,4.1266675E3,1.9083973E4,4.0883706E3,7.930678E4,3.2059644E3,4.702827E1,4.079639E3,5.713401E3,1.3370571E4,1.8169519E2,3.9066755E3,7.6300664E4,3.0061208E3,1.00145056E3,2.2045137E3,3.8919333E3,1.8770563E2,3.343414E3,2.3699866E3,1.3071657E4,2.9891446E2,5.4752155E2,3.3591538E3],"tree_param":{"num_deleted":"0","num_feature":"1190","num_nodes":"27","size_leaf_vector":"1"}},{"base_weights":[-1.1455367E-2,-7.1529067E-1,3.4003634E-2,-8.5921603E-1,3.1114665E-1,-5.0481908E-2,3.2309666E-1,-8.762713E-1,6.4320354E0,9.534231E-1,-1.1363681E-1,1.6314028E-1,-4.1623694E-1,3.7005678E-1,-7.7974313E-1,-9.084129E-2,1.9956951E-1,8.6235774E-1,-7.983061E-2,3.5874975E-1,6.1744113E-2,2.5320787E-2,-1.3615404E-1,-6.1534286E-2,3.187261E-2,2.7600843E-2,7.935791E-2,-1.23206854E-1,-2.184552E-2],"categories":[],"categories_nodes":[],"categories_segments":[],"categories_sizes":[],"default_left":[0,0,0,0,0,0,0,0,0,0,0,0,0,0,0,0,0,0,0,0,0,0,0,0,0,0,0,0,0],"id":47,"left_children":[1,3,5,7,9,11,13,15,17,19,-1,21,23,25,27,-1,-1,-1,-1,-1,-1,-1,-1,-1,-1,-1,-1,-1,-1],"loss_changes":[3.4386772E3,9.635139E2,2.4657158E3,7.167871E2,7.472352E2,6.1041064E3,1.1826897E3,5.285571E2,2.2025525E2,4.9024487E2,0E0,6.7730674E3,4.215409E3,8.720574E2,2.3654987E2,0E0,0E0,0E0,0E0,0E0,0E0,0E0,0E0,0E0,0E0,0E0,0E0,0E0,0E0],"parents":[2147483647,0,0,1,1,2,2,3,3,4,4,5,5,6,6,7,7,8,8,9,9,11,11,12,12,13,13,14,14],"right_children":[2,4,6,8,10,12,14,16,18,20,-1,22,24,26,28,-1,-1,-1,-1,-1,-1,-1,-1,-1,-1,-1,-1,-1,-1],"split_conditions":[-4.0233693E-1,3.2359614E0,9.1169304E-1,2.484055E1,-2.8898704E-1,-2.9292798E-1,3.9087899E0,3.9850502E1,-4.2104995E-1,-2.3344061E0,-1.1363681E-1,3.6300626E0,3.6300626E0,3.0802069E0,3.5865357E0,-9.084129E-2,1.9956951E-1,8.6235774E-1,-7.983061E-2,3.5874975E-1,6.1744113E-2,2.5320787E-2,-1.3615404E-1,-6.1534286E-2,3.187261E-2,2.7600843E-2,7.935791E-2,-1.23206854E-1,-2.184552E-2],"split_indices":[0,706,0,1177,3,0,708,224,0,2,0,700,700,703,0,0,0,0,0,0,0,0,0,0,0,0,0,0,0],"split_type":[0,0,0,0,0,0,0,0,0,0,0,0,0,0,0,0,0,0,0,0,0,0,0,0,0,0,0,0,0],"sum_hessian":[1.07471516E5,6.519305E3,1.0095221E5,5.7177363E3,8.015688E2,7.8122305E4,2.2829904E4,5.7052705E3,1.2465642E1,5.5545105E2,2.4611772E2,4.9318176E4,2.8804127E4,2.1898123E4,9.3178143E2,5.6428027E3,6.2467793E1,9.418246E0,3.0473957E0,6.1739567E1,4.9371146E2,4.656809E4,2.7500867E3,2.2664373E4,6.139753E3,1.7920342E4,3.977782E3,5.153118E2,4.1646964E2],"tree_param":{"num_deleted":"0","num_feature":"1190","num_nodes":"29","size_leaf_vector":"1"}},{"base_weights":[-2.0675445E-2,-6.966142E-1,2.4772033E-2,-8.305877E-1,2.0941532E-1,-2.313923E-2,5.058154E-1,-8.474794E-1,6.9244347E0,-6.854446E-1,1.0185213E0,1.0782882E-2,-1.1521885E0,6.5014964E-1,3.6667502E-1,-8.799707E-2,2.6741734E-1,-8.2521364E-2,1.0409675E0,-9.194539E-2,4.754502E-1,1.523413E-1,-1.11168884E-1,1.8280845E-2,-1.7991593E-2,-1.1003142E-1,-1.5853398E-1,8.210636E-2,4.9764574E-2,3.719763E-2,-4.925308E-1],"categories":[],"categories_nodes":[],"categories_segments":[],"categories_sizes":[],"default_left":[0,0,0,0,0,0,0,0,0,0,0,0,0,0,0,0,0,0,0,0,0,0,0,0,0,0,0,0,0,0,0],"id":48,"left_children":[1,3,5,7,9,11,13,15,17,19,21,23,25,27,29,-1,-1,-1,-1,-1,-1,-1,-1,-1,-1,-1,-1,-1,-1,-1,-1],"loss_changes":[3.2289243E3,8.039656E2,2.2698975E3,7.6159106E2,6.189048E2,3.4304407E3,1.7891528E2,6.6113525E2,3.5019696E2,5.2124603E2,4.8439365E2,2.8526428E3,5.6958984E1,1.1368811E2,1.2932257E2,0E0,0E0,0E0,0E0,0E0,0E0,0E0,0E0,0E0,0E0,0E0,0E0,0E0,0E0,0E0,0E0],"parents":[2147483647,0,0,1,1,2,2,3,3,4,4,5,5,6,6,7,7,8,8,9,9,10,10,11,11,12,12,13,13,14,14],"right_children":[2,4,6,8,10,12,14,16,18,20,22,24,26,28,30,-1,-1,-1,-1,-1,-1,-1,-1,-1,-1,-1,-1,-1,-1,-1,-1],"split_conditions":[-4.0059036E-1,3.2359614E0,3.5865357E0,3.5449776E1,-4.1362712E-1,3.50619E0,9.0920585E-1,3.9704704E1,5.568764E0,1.6685192E1,-2.8777164E-1,-2.9710722E-1,2.224725E0,-2.8486723E-1,2.0676344E1,-8.799707E-2,2.6741734E-1,-8.2521364E-2,1.0409675E0,-9.194539E-2,4.754502E-1,1.523413E-1,-1.11168884E-1,1.8280845E-2,-1.7991593E-2,-1.1003142E-1,-1.5853398E-1,8.210636E-2,4.9764574E-2,3.719763E-2,-4.925308E-1],"split_indices":[0,706,0,1060,0,710,713,447,712,1175,3,0,0,3,830,0,0,0,0,0,0,0,0,0,0,0,0,0,0,0,0],"split_type":[0,0,0,0,0,0,0,0,0,0,0,0,0,0,0,0,0,0,0,0,0,0,0,0,0,0,0,0,0,0,0],"sum_hessian":[1.0510763E5,6.620899E3,9.8486734E4,5.768066E3,8.5283344E2,8.956694E4,8.919793E3,5.756418E3,1.1647705E1,4.0502942E2,4.4780402E2,8.695537E4,2.6115703E3,4.376379E3,4.5434146E3,5.704537E3,5.188083E1,3.8500671E0,7.7976375E0,